digraph Tree {
node [shape=box, fontname="helvetica"] ;
edge [fontname="helvetica"] ;
0 [label="czas_gry <= 72.5\nsquared_error = 1.254\nsamples = 457\nvalue = 8.574"] ;
1 [label="bezpieczeństwo_dezynfekowane_pokoje <= 0.5\nsquared_error = 1.311\nsamples = 351\nvalue = 8.342"] ;
0 -> 1 [labeldistance=2.5, labelangle=45, headlabel="True"] ;
2 [label="czas_gry <= 55.0\nsquared_error = 1.673\nsamples = 188\nvalue = 8.066"] ;
1 -> 2 ;
3 [label="podstawowe_nie_dla_kobiet_w_ciąży <= 0.5\nsquared_error = 0.903\nsamples = 7\nvalue = 9.0"] ;
2 -> 3 ;
4 [label="kategoria_Fabularny <= 0.5\nsquared_error = 0.442\nsamples = 5\nvalue = 9.48"] ;
3 -> 4 ;
5 [label="squared_error = 0.0\nsamples = 3\nvalue = 10.0"] ;
4 -> 5 ;
6 [label="poziom_trudnosci_doświadczony <= 0.5\nsquared_error = 0.09\nsamples = 2\nvalue = 8.7"] ;
4 -> 6 ;
7 [label="squared_error = 0.0\nsamples = 1\nvalue = 8.4"] ;
6 -> 7 ;
8 [label="squared_error = 0.0\nsamples = 1\nvalue = 9.0"] ;
6 -> 8 ;
9 [label="poziom_trudnosci_śr. zaawansowani <= 0.5\nsquared_error = 0.04\nsamples = 2\nvalue = 7.8"] ;
3 -> 9 ;
10 [label="squared_error = 0.0\nsamples = 1\nvalue = 8.0"] ;
9 -> 10 ;
11 [label="squared_error = -0.0\nsamples = 1\nvalue = 7.6"] ;
9 -> 11 ;
12 [label="kategoria_Kryminalny <= 0.5\nsquared_error = 1.667\nsamples = 181\nvalue = 8.03"] ;
2 -> 12 ;
13 [label="bezpieczeństwo_dostępny_żel_antybakteryjny <= 0.5\nsquared_error = 1.705\nsamples = 157\nvalue = 8.107"] ;
12 -> 13 ;
14 [label="poziom_trudnosci_początkujący <= 0.5\nsquared_error = 1.681\nsamples = 144\nvalue = 8.158"] ;
13 -> 14 ;
15 [label="podstawowe_nie_dla_kobiet_w_ciąży <= 0.5\nsquared_error = 1.516\nsamples = 110\nvalue = 8.244"] ;
14 -> 15 ;
16 [label="czas_gry <= 65.0\nsquared_error = 1.564\nsamples = 90\nvalue = 8.13"] ;
15 -> 16 ;
17 [label="kategoria_Fabularny <= 0.5\nsquared_error = 1.593\nsamples = 85\nvalue = 8.081"] ;
16 -> 17 ;
18 [label="kategoria_Fantasy <= 0.5\nsquared_error = 1.605\nsamples = 72\nvalue = 8.143"] ;
17 -> 18 ;
19 [label="poziom_trudnosci_doświadczony <= 0.5\nsquared_error = 1.64\nsamples = 68\nvalue = 8.113"] ;
18 -> 19 ;
20 [label="kategoria_Thriller <= 0.5\nsquared_error = 1.869\nsamples = 52\nvalue = 8.048"] ;
19 -> 20 ;
21 [label="podstawowe_przyjazny_dzieciom <= 0.5\nsquared_error = 1.871\nsamples = 44\nvalue = 8.136"] ;
20 -> 21 ;
22 [label="kategoria_Przygodowy <= 0.5\nsquared_error = 1.096\nsamples = 16\nvalue = 8.356"] ;
21 -> 22 ;
23 [label="kategoria_Historyczny <= 0.5\nsquared_error = 1.071\nsamples = 6\nvalue = 8.317"] ;
22 -> 23 ;
24 [label="kategoria_Horror <= 0.5\nsquared_error = 1.545\nsamples = 4\nvalue = 8.3"] ;
23 -> 24 ;
25 [label="squared_error = 0.0\nsamples = 1\nvalue = 8.3"] ;
24 -> 25 ;
26 [label="squared_error = 2.06\nsamples = 3\nvalue = 8.3"] ;
24 -> 26 ;
27 [label="squared_error = 0.122\nsamples = 2\nvalue = 8.35"] ;
23 -> 27 ;
28 [label="poziom_trudnosci_na pierwszy raz <= 0.5\nsquared_error = 1.11\nsamples = 10\nvalue = 8.38"] ;
22 -> 28 ;
29 [label="squared_error = 1.232\nsamples = 9\nvalue = 8.389"] ;
28 -> 29 ;
30 [label="squared_error = 0.0\nsamples = 1\nvalue = 8.3"] ;
28 -> 30 ;
31 [label="poziom_trudnosci_na pierwszy raz <= 0.5\nsquared_error = 2.27\nsamples = 28\nvalue = 8.011"] ;
21 -> 31 ;
32 [label="poziom_trudnosci_eksperci <= 0.5\nsquared_error = 2.307\nsamples = 27\nvalue = 8.052"] ;
31 -> 32 ;
33 [label="squared_error = 2.47\nsamples = 25\nvalue = 8.012"] ;
32 -> 33 ;
34 [label="kategoria_Historyczny <= 0.5\nsquared_error = 0.003\nsamples = 2\nvalue = 8.55"] ;
32 -> 34 ;
35 [label="squared_error = 0.0\nsamples = 1\nvalue = 8.6"] ;
34 -> 35 ;
36 [label="squared_error = -0.0\nsamples = 1\nvalue = 8.5"] ;
34 -> 36 ;
37 [label="squared_error = -0.0\nsamples = 1\nvalue = 6.9"] ;
31 -> 37 ;
38 [label="poziom_trudnosci_eksperci <= 0.5\nsquared_error = 1.582\nsamples = 8\nvalue = 7.562"] ;
20 -> 38 ;
39 [label="podstawowe_przyjazny_dzieciom <= 0.5\nsquared_error = 1.983\nsamples = 6\nvalue = 7.4"] ;
38 -> 39 ;
40 [label="squared_error = 2.294\nsamples = 5\nvalue = 7.28"] ;
39 -> 40 ;
41 [label="squared_error = 0.0\nsamples = 1\nvalue = 8.0"] ;
39 -> 41 ;
42 [label="squared_error = 0.063\nsamples = 2\nvalue = 8.05"] ;
38 -> 42 ;
43 [label="kategoria_Przygodowy <= 0.5\nsquared_error = 0.837\nsamples = 16\nvalue = 8.325"] ;
19 -> 43 ;
44 [label="kategoria_Horror <= 0.5\nsquared_error = 0.472\nsamples = 8\nvalue = 8.45"] ;
43 -> 44 ;
45 [label="squared_error = 0.54\nsamples = 7\nvalue = 8.457"] ;
44 -> 45 ;
46 [label="squared_error = -0.0\nsamples = 1\nvalue = 8.4"] ;
44 -> 46 ;
47 [label="podstawowe_przyjazny_dzieciom <= 0.5\nsquared_error = 1.17\nsamples = 8\nvalue = 8.2"] ;
43 -> 47 ;
48 [label="squared_error = 0.64\nsamples = 2\nvalue = 7.8"] ;
47 -> 48 ;
49 [label="squared_error = 1.276\nsamples = 6\nvalue = 8.333"] ;
47 -> 49 ;
50 [label="poziom_trudnosci_śr. zaawansowani <= 0.5\nsquared_error = 0.728\nsamples = 4\nvalue = 8.65"] ;
18 -> 50 ;
51 [label="squared_error = 0.0\nsamples = 1\nvalue = 7.2"] ;
50 -> 51 ;
52 [label="podstawowe_przyjazny_dzieciom <= 0.5\nsquared_error = 0.036\nsamples = 3\nvalue = 9.133"] ;
50 -> 52 ;
53 [label="squared_error = 0.04\nsamples = 2\nvalue = 9.2"] ;
52 -> 53 ;
54 [label="squared_error = 0.0\nsamples = 1\nvalue = 9.0"] ;
52 -> 54 ;
55 [label="poziom_trudnosci_śr. zaawansowani <= 0.5\nsquared_error = 1.389\nsamples = 13\nvalue = 7.738"] ;
17 -> 55 ;
56 [label="poziom_trudnosci_na pierwszy raz <= 0.5\nsquared_error = 0.796\nsamples = 5\nvalue = 8.6"] ;
55 -> 56 ;
57 [label="squared_error = 0.983\nsamples = 4\nvalue = 8.55"] ;
56 -> 57 ;
58 [label="squared_error = -0.0\nsamples = 1\nvalue = 8.8"] ;
56 -> 58 ;
59 [label="podstawowe_przyjazny_dzieciom <= 0.5\nsquared_error = 1.005\nsamples = 8\nvalue = 7.2"] ;
55 -> 59 ;
60 [label="squared_error = 0.676\nsamples = 3\nvalue = 6.867"] ;
59 -> 60 ;
61 [label="squared_error = 1.096\nsamples = 5\nvalue = 7.4"] ;
59 -> 61 ;
62 [label="poziom_trudnosci_śr. zaawansowani <= 0.5\nsquared_error = 0.338\nsamples = 5\nvalue = 8.96"] ;
16 -> 62 ;
63 [label="kategoria_Przygodowy <= 0.5\nsquared_error = 0.09\nsamples = 2\nvalue = 8.3"] ;
62 -> 63 ;
64 [label="squared_error = 0.0\nsamples = 1\nvalue = 8.0"] ;
63 -> 64 ;
65 [label="squared_error = -0.0\nsamples = 1\nvalue = 8.6"] ;
63 -> 65 ;
66 [label="kategoria_Fabularny <= 0.5\nsquared_error = 0.02\nsamples = 3\nvalue = 9.4"] ;
62 -> 66 ;
67 [label="squared_error = 0.0\nsamples = 1\nvalue = 9.5"] ;
66 -> 67 ;
68 [label="squared_error = 0.022\nsamples = 2\nvalue = 9.35"] ;
66 -> 68 ;
69 [label="kategoria_Historyczny <= 0.5\nsquared_error = 0.979\nsamples = 20\nvalue = 8.755"] ;
15 -> 69 ;
70 [label="kategoria_Akcja <= 0.5\nsquared_error = 0.444\nsamples = 19\nvalue = 8.926"] ;
69 -> 70 ;
71 [label="kategoria_Thriller <= 0.5\nsquared_error = 0.314\nsamples = 18\nvalue = 9.017"] ;
70 -> 71 ;
72 [label="czas_gry <= 65.0\nsquared_error = 0.222\nsamples = 12\nvalue = 9.208"] ;
71 -> 72 ;
73 [label="kategoria_Przygodowy <= 0.5\nsquared_error = 0.222\nsamples = 9\nvalue = 9.078"] ;
72 -> 73 ;
74 [label="kategoria_Abstrakcyjny <= 0.5\nsquared_error = 0.016\nsamples = 3\nvalue = 8.933"] ;
73 -> 74 ;
75 [label="kategoria_Fabularny <= 0.5\nsquared_error = 0.002\nsamples = 2\nvalue = 8.85"] ;
74 -> 75 ;
76 [label="squared_error = 0.0\nsamples = 1\nvalue = 8.9"] ;
75 -> 76 ;
77 [label="squared_error = -0.0\nsamples = 1\nvalue = 8.8"] ;
75 -> 77 ;
78 [label="squared_error = -0.0\nsamples = 1\nvalue = 9.1"] ;
74 -> 78 ;
79 [label="podstawowe_przyjazny_dzieciom <= 0.5\nsquared_error = 0.309\nsamples = 6\nvalue = 9.15"] ;
73 -> 79 ;
80 [label="squared_error = 0.276\nsamples = 3\nvalue = 9.233"] ;
79 -> 80 ;
81 [label="poziom_trudnosci_śr. zaawansowani <= 0.5\nsquared_error = 0.329\nsamples = 3\nvalue = 9.067"] ;
79 -> 81 ;
82 [label="squared_error = 0.0\nsamples = 1\nvalue = 9.0"] ;
81 -> 82 ;
83 [label="squared_error = 0.49\nsamples = 2\nvalue = 9.1"] ;
81 -> 83 ;
84 [label="kategoria_Przygodowy <= 0.5\nsquared_error = 0.02\nsamples = 3\nvalue = 9.6"] ;
72 -> 84 ;
85 [label="squared_error = 0.0\nsamples = 1\nvalue = 9.5"] ;
84 -> 85 ;
86 [label="squared_error = 0.023\nsamples = 2\nvalue = 9.65"] ;
84 -> 86 ;
87 [label="squared_error = 0.276\nsamples = 6\nvalue = 8.633"] ;
71 -> 87 ;
88 [label="squared_error = -0.0\nsamples = 1\nvalue = 7.3"] ;
70 -> 88 ;
89 [label="squared_error = 0.0\nsamples = 1\nvalue = 5.5"] ;
69 -> 89 ;
90 [label="podstawowe_przyjazny_dzieciom <= 0.5\nsquared_error = 2.119\nsamples = 34\nvalue = 7.882"] ;
14 -> 90 ;
91 [label="podstawowe_nie_dla_kobiet_w_ciąży <= 0.5\nsquared_error = 4.756\nsamples = 6\nvalue = 6.067"] ;
90 -> 91 ;
92 [label="czas_gry <= 65.0\nsquared_error = 3.734\nsamples = 5\nvalue = 6.64"] ;
91 -> 92 ;
93 [label="kategoria_Historyczny <= 0.5\nsquared_error = 1.78\nsamples = 4\nvalue = 7.4"] ;
92 -> 93 ;
94 [label="kategoria_Przygodowy <= 0.5\nsquared_error = 1.236\nsamples = 3\nvalue = 7.933"] ;
93 -> 94 ;
95 [label="squared_error = 0.0\nsamples = 1\nvalue = 9.0"] ;
94 -> 95 ;
96 [label="squared_error = 1.0\nsamples = 2\nvalue = 7.4"] ;
94 -> 96 ;
97 [label="squared_error = -0.0\nsamples = 1\nvalue = 5.8"] ;
93 -> 97 ;
98 [label="squared_error = -0.0\nsamples = 1\nvalue = 3.6"] ;
92 -> 98 ;
99 [label="squared_error = -0.0\nsamples = 1\nvalue = 3.2"] ;
91 -> 99 ;
100 [label="kategoria_Thriller <= 0.5\nsquared_error = 0.696\nsamples = 28\nvalue = 8.271"] ;
90 -> 100 ;
101 [label="kategoria_Fantasy <= 0.5\nsquared_error = 0.61\nsamples = 26\nvalue = 8.365"] ;
100 -> 101 ;
102 [label="kategoria_Abstrakcyjny <= 0.5\nsquared_error = 0.549\nsamples = 25\nvalue = 8.308"] ;
101 -> 102 ;
103 [label="kategoria_Przygodowy <= 0.5\nsquared_error = 0.479\nsamples = 21\nvalue = 8.39"] ;
102 -> 103 ;
104 [label="kategoria_Fabularny <= 0.5\nsquared_error = 0.219\nsamples = 6\nvalue = 8.567"] ;
103 -> 104 ;
105 [label="kategoria_Dla dzieci <= 0.5\nsquared_error = 0.128\nsamples = 4\nvalue = 8.65"] ;
104 -> 105 ;
106 [label="squared_error = 0.09\nsamples = 2\nvalue = 8.6"] ;
105 -> 106 ;
107 [label="squared_error = 0.16\nsamples = 2\nvalue = 8.7"] ;
105 -> 107 ;
108 [label="squared_error = 0.36\nsamples = 2\nvalue = 8.4"] ;
104 -> 108 ;
109 [label="podstawowe_nie_dla_kobiet_w_ciąży <= 0.5\nsquared_error = 0.566\nsamples = 15\nvalue = 8.32"] ;
103 -> 109 ;
110 [label="squared_error = 0.588\nsamples = 14\nvalue = 8.286"] ;
109 -> 110 ;
111 [label="squared_error = 0.0\nsamples = 1\nvalue = 8.8"] ;
109 -> 111 ;
112 [label="squared_error = 0.692\nsamples = 4\nvalue = 7.875"] ;
102 -> 112 ;
113 [label="squared_error = 0.0\nsamples = 1\nvalue = 9.8"] ;
101 -> 113 ;
114 [label="squared_error = 0.202\nsamples = 2\nvalue = 7.05"] ;
100 -> 114 ;
115 [label="kategoria_Horror <= 0.5\nsquared_error = 1.61\nsamples = 13\nvalue = 7.538"] ;
13 -> 115 ;
116 [label="kategoria_Historyczny <= 0.5\nsquared_error = 1.116\nsamples = 12\nvalue = 7.758"] ;
115 -> 116 ;
117 [label="kategoria_Fantasy <= 0.5\nsquared_error = 1.06\nsamples = 11\nvalue = 7.873"] ;
116 -> 117 ;
118 [label="kategoria_Przygodowy <= 0.5\nsquared_error = 0.707\nsamples = 9\nvalue = 8.056"] ;
117 -> 118 ;
119 [label="podstawowe_przyjazny_dzieciom <= 0.5\nsquared_error = 0.16\nsamples = 2\nvalue = 8.5"] ;
118 -> 119 ;
120 [label="squared_error = 0.0\nsamples = 1\nvalue = 8.1"] ;
119 -> 120 ;
121 [label="squared_error = -0.0\nsamples = 1\nvalue = 8.9"] ;
119 -> 121 ;
122 [label="podstawowe_nie_dla_kobiet_w_ciąży <= 0.5\nsquared_error = 0.791\nsamples = 7\nvalue = 7.929"] ;
118 -> 122 ;
123 [label="poziom_trudnosci_śr. zaawansowani <= 0.5\nsquared_error = 0.896\nsamples = 6\nvalue = 7.867"] ;
122 -> 123 ;
124 [label="poziom_trudnosci_początkujący <= 0.5\nsquared_error = 0.107\nsamples = 3\nvalue = 7.9"] ;
123 -> 124 ;
125 [label="squared_error = 0.0\nsamples = 1\nvalue = 7.9"] ;
124 -> 125 ;
126 [label="squared_error = 0.16\nsamples = 2\nvalue = 7.9"] ;
124 -> 126 ;
127 [label="squared_error = 1.682\nsamples = 3\nvalue = 7.833"] ;
123 -> 127 ;
128 [label="squared_error = -0.0\nsamples = 1\nvalue = 8.3"] ;
122 -> 128 ;
129 [label="squared_error = 1.822\nsamples = 2\nvalue = 7.05"] ;
117 -> 129 ;
130 [label="squared_error = 0.0\nsamples = 1\nvalue = 6.5"] ;
116 -> 130 ;
131 [label="squared_error = -0.0\nsamples = 1\nvalue = 4.9"] ;
115 -> 131 ;
132 [label="poziom_trudnosci_śr. zaawansowani <= 0.5\nsquared_error = 1.133\nsamples = 24\nvalue = 7.529"] ;
12 -> 132 ;
133 [label="bezpieczeństwo_dostępny_żel_antybakteryjny <= 0.5\nsquared_error = 1.083\nsamples = 17\nvalue = 7.271"] ;
132 -> 133 ;
134 [label="podstawowe_przyjazny_dzieciom <= 0.5\nsquared_error = 1.051\nsamples = 16\nvalue = 7.194"] ;
133 -> 134 ;
135 [label="poziom_trudnosci_początkujący <= 0.5\nsquared_error = 0.482\nsamples = 6\nvalue = 6.75"] ;
134 -> 135 ;
136 [label="squared_error = 0.42\nsamples = 3\nvalue = 6.3"] ;
135 -> 136 ;
137 [label="squared_error = 0.14\nsamples = 3\nvalue = 7.2"] ;
135 -> 137 ;
138 [label="poziom_trudnosci_początkujący <= 0.5\nsquared_error = 1.202\nsamples = 10\nvalue = 7.46"] ;
134 -> 138 ;
139 [label="squared_error = 2.349\nsamples = 3\nvalue = 7.433"] ;
138 -> 139 ;
140 [label="squared_error = 0.711\nsamples = 7\nvalue = 7.471"] ;
138 -> 140 ;
141 [label="squared_error = 0.0\nsamples = 1\nvalue = 8.5"] ;
133 -> 141 ;
142 [label="podstawowe_przyjazny_dzieciom <= 0.5\nsquared_error = 0.697\nsamples = 7\nvalue = 8.157"] ;
132 -> 142 ;
143 [label="podstawowe_nie_dla_kobiet_w_ciąży <= 0.5\nsquared_error = 0.96\nsamples = 5\nvalue = 8.2"] ;
142 -> 143 ;
144 [label="squared_error = 1.197\nsamples = 4\nvalue = 8.225"] ;
143 -> 144 ;
145 [label="squared_error = -0.0\nsamples = 1\nvalue = 8.1"] ;
143 -> 145 ;
146 [label="squared_error = 0.023\nsamples = 2\nvalue = 8.05"] ;
142 -> 146 ;
147 [label="kategoria_Dla dzieci <= 0.5\nsquared_error = 0.706\nsamples = 163\nvalue = 8.659"] ;
1 -> 147 ;
148 [label="poziom_trudnosci_na pierwszy raz <= 0.5\nsquared_error = 0.692\nsamples = 161\nvalue = 8.642"] ;
147 -> 148 ;
149 [label="bezpieczeństwo_dostępny_żel_antybakteryjny <= 0.5\nsquared_error = 0.678\nsamples = 158\nvalue = 8.663"] ;
148 -> 149 ;
150 [label="poziom_trudnosci_początkujący <= 0.5\nsquared_error = 0.207\nsamples = 4\nvalue = 9.55"] ;
149 -> 150 ;
151 [label="podstawowe_przyjazny_dzieciom <= 0.5\nsquared_error = 0.01\nsamples = 2\nvalue = 9.1"] ;
150 -> 151 ;
152 [label="squared_error = 0.0\nsamples = 1\nvalue = 9.0"] ;
151 -> 152 ;
153 [label="squared_error = 0.0\nsamples = 1\nvalue = 9.2"] ;
151 -> 153 ;
154 [label="squared_error = -0.0\nsamples = 2\nvalue = 10.0"] ;
150 -> 154 ;
155 [label="kategoria_Abstrakcyjny <= 0.5\nsquared_error = 0.669\nsamples = 154\nvalue = 8.64"] ;
149 -> 155 ;
156 [label="podstawowe_nie_dla_kobiet_w_ciąży <= 0.5\nsquared_error = 0.628\nsamples = 148\nvalue = 8.668"] ;
155 -> 156 ;
157 [label="poziom_trudnosci_doświadczony <= 0.5\nsquared_error = 0.656\nsamples = 120\nvalue = 8.614"] ;
156 -> 157 ;
158 [label="czas_gry <= 67.5\nsquared_error = 0.681\nsamples = 103\nvalue = 8.566"] ;
157 -> 158 ;
159 [label="poziom_trudnosci_śr. zaawansowani <= 0.5\nsquared_error = 0.697\nsamples = 97\nvalue = 8.545"] ;
158 -> 159 ;
160 [label="podstawowe_przyjazny_dzieciom <= 0.5\nsquared_error = 0.391\nsamples = 31\nvalue = 8.687"] ;
159 -> 160 ;
161 [label="kategoria_Fantasy <= 0.5\nsquared_error = 0.071\nsamples = 9\nvalue = 8.822"] ;
160 -> 161 ;
162 [label="kategoria_Fabularny <= 0.5\nsquared_error = 0.047\nsamples = 8\nvalue = 8.762"] ;
161 -> 162 ;
163 [label="poziom_trudnosci_początkujący <= 0.5\nsquared_error = 0.025\nsamples = 6\nvalue = 8.683"] ;
162 -> 163 ;
164 [label="squared_error = 0.0\nsamples = 1\nvalue = 8.9"] ;
163 -> 164 ;
165 [label="kategoria_Kryminalny <= 0.5\nsquared_error = 0.018\nsamples = 5\nvalue = 8.64"] ;
163 -> 165 ;
166 [label="kategoria_Thriller <= 0.5\nsquared_error = 0.002\nsamples = 3\nvalue = 8.567"] ;
165 -> 166 ;
167 [label="squared_error = 0.002\nsamples = 2\nvalue = 8.55"] ;
166 -> 167 ;
168 [label="squared_error = -0.0\nsamples = 1\nvalue = 8.6"] ;
166 -> 168 ;
169 [label="squared_error = 0.023\nsamples = 2\nvalue = 8.75"] ;
165 -> 169 ;
170 [label="squared_error = 0.04\nsamples = 2\nvalue = 9.0"] ;
162 -> 170 ;
171 [label="squared_error = 0.0\nsamples = 1\nvalue = 9.3"] ;
161 -> 171 ;
172 [label="kategoria_Przygodowy <= 0.5\nsquared_error = 0.511\nsamples = 22\nvalue = 8.632"] ;
160 -> 172 ;
173 [label="kategoria_Fabularny <= 0.5\nsquared_error = 0.339\nsamples = 8\nvalue = 8.412"] ;
172 -> 173 ;
174 [label="kategoria_Historyczny <= 0.5\nsquared_error = 0.373\nsamples = 7\nvalue = 8.371"] ;
173 -> 174 ;
175 [label="kategoria_Fantasy <= 0.5\nsquared_error = 0.438\nsamples = 5\nvalue = 8.34"] ;
174 -> 175 ;
176 [label="kategoria_Horror <= 0.5\nsquared_error = 0.667\nsamples = 3\nvalue = 8.3"] ;
175 -> 176 ;
177 [label="squared_error = 1.0\nsamples = 2\nvalue = 8.3"] ;
176 -> 177 ;
178 [label="squared_error = 0.0\nsamples = 1\nvalue = 8.3"] ;
176 -> 178 ;
179 [label="squared_error = 0.09\nsamples = 2\nvalue = 8.4"] ;
175 -> 179 ;
180 [label="squared_error = 0.203\nsamples = 2\nvalue = 8.45"] ;
174 -> 180 ;
181 [label="squared_error = -0.0\nsamples = 1\nvalue = 8.7"] ;
173 -> 181 ;
182 [label="squared_error = 0.567\nsamples = 14\nvalue = 8.757"] ;
172 -> 182 ;
183 [label="czas_gry <= 55.0\nsquared_error = 0.827\nsamples = 66\nvalue = 8.479"] ;
159 -> 183 ;
184 [label="squared_error = 0.0\nsamples = 1\nvalue = 9.4"] ;
183 -> 184 ;
185 [label="kategoria_Historyczny <= 0.5\nsquared_error = 0.826\nsamples = 65\nvalue = 8.465"] ;
183 -> 185 ;
186 [label="czas_gry <= 62.5\nsquared_error = 0.834\nsamples = 64\nvalue = 8.456"] ;
185 -> 186 ;
187 [label="kategoria_Thriller <= 0.5\nsquared_error = 0.817\nsamples = 60\nvalue = 8.472"] ;
186 -> 187 ;
188 [label="kategoria_Fantasy <= 0.5\nsquared_error = 0.686\nsamples = 53\nvalue = 8.5"] ;
187 -> 188 ;
189 [label="podstawowe_przyjazny_dzieciom <= 0.5\nsquared_error = 0.675\nsamples = 49\nvalue = 8.482"] ;
188 -> 189 ;
190 [label="kategoria_Kryminalny <= 0.5\nsquared_error = 0.537\nsamples = 18\nvalue = 8.567"] ;
189 -> 190 ;
191 [label="kategoria_Fabularny <= 0.5\nsquared_error = 0.45\nsamples = 11\nvalue = 8.845"] ;
190 -> 191 ;
192 [label="squared_error = 0.245\nsamples = 6\nvalue = 9.017"] ;
191 -> 192 ;
193 [label="squared_error = 0.618\nsamples = 5\nvalue = 8.64"] ;
191 -> 193 ;
194 [label="squared_error = 0.359\nsamples = 7\nvalue = 8.129"] ;
190 -> 194 ;
195 [label="kategoria_Kryminalny <= 0.5\nsquared_error = 0.749\nsamples = 31\nvalue = 8.432"] ;
189 -> 195 ;
196 [label="kategoria_Przygodowy <= 0.5\nsquared_error = 0.785\nsamples = 27\nvalue = 8.359"] ;
195 -> 196 ;
197 [label="squared_error = 1.345\nsamples = 4\nvalue = 8.3"] ;
196 -> 197 ;
198 [label="squared_error = 0.687\nsamples = 23\nvalue = 8.37"] ;
196 -> 198 ;
199 [label="squared_error = 0.222\nsamples = 4\nvalue = 8.925"] ;
195 -> 199 ;
200 [label="podstawowe_przyjazny_dzieciom <= 0.5\nsquared_error = 0.767\nsamples = 4\nvalue = 8.725"] ;
188 -> 200 ;
201 [label="squared_error = 0.0\nsamples = 1\nvalue = 7.9"] ;
200 -> 201 ;
202 [label="squared_error = 0.72\nsamples = 3\nvalue = 9.0"] ;
200 -> 202 ;
203 [label="squared_error = 1.76\nsamples = 7\nvalue = 8.257"] ;
187 -> 203 ;
204 [label="kategoria_Fantasy <= 0.5\nsquared_error = 1.032\nsamples = 4\nvalue = 8.225"] ;
186 -> 204 ;
205 [label="kategoria_Przygodowy <= 0.5\nsquared_error = 0.202\nsamples = 3\nvalue = 8.767"] ;
204 -> 205 ;
206 [label="squared_error = 0.0\nsamples = 1\nvalue = 9.4"] ;
205 -> 206 ;
207 [label="squared_error = 0.003\nsamples = 2\nvalue = 8.45"] ;
205 -> 207 ;
208 [label="squared_error = -0.0\nsamples = 1\nvalue = 6.6"] ;
204 -> 208 ;
209 [label="squared_error = -0.0\nsamples = 1\nvalue = 9.0"] ;
185 -> 209 ;
210 [label="poziom_trudnosci_początkujący <= 0.5\nsquared_error = 0.307\nsamples = 6\nvalue = 8.9"] ;
158 -> 210 ;
211 [label="kategoria_Historyczny <= 0.5\nsquared_error = 0.174\nsamples = 5\nvalue = 9.08"] ;
210 -> 211 ;
212 [label="kategoria_Fabularny <= 0.5\nsquared_error = 0.027\nsamples = 4\nvalue = 9.275"] ;
211 -> 212 ;
213 [label="squared_error = 0.036\nsamples = 3\nvalue = 9.267"] ;
212 -> 213 ;
214 [label="squared_error = 0.0\nsamples = 1\nvalue = 9.3"] ;
212 -> 214 ;
215 [label="squared_error = -0.0\nsamples = 1\nvalue = 8.3"] ;
211 -> 215 ;
216 [label="squared_error = 0.0\nsamples = 1\nvalue = 8.0"] ;
210 -> 216 ;
217 [label="kategoria_Fabularny <= 0.5\nsquared_error = 0.409\nsamples = 17\nvalue = 8.906"] ;
157 -> 217 ;
218 [label="kategoria_Przygodowy <= 0.5\nsquared_error = 0.116\nsamples = 12\nvalue = 9.167"] ;
217 -> 218 ;
219 [label="podstawowe_przyjazny_dzieciom <= 0.5\nsquared_error = 0.059\nsamples = 6\nvalue = 9.333"] ;
218 -> 219 ;
220 [label="kategoria_Thriller <= 0.5\nsquared_error = 0.002\nsamples = 2\nvalue = 9.55"] ;
219 -> 220 ;
221 [label="squared_error = 0.0\nsamples = 1\nvalue = 9.5"] ;
220 -> 221 ;
222 [label="squared_error = -0.0\nsamples = 1\nvalue = 9.6"] ;
220 -> 222 ;
223 [label="kategoria_Fantasy <= 0.5\nsquared_error = 0.052\nsamples = 4\nvalue = 9.225"] ;
219 -> 223 ;
224 [label="kategoria_Kryminalny <= 0.5\nsquared_error = 0.036\nsamples = 3\nvalue = 9.133"] ;
223 -> 224 ;
225 [label="squared_error = 0.0\nsamples = 1\nvalue = 9.0"] ;
224 -> 225 ;
226 [label="squared_error = 0.04\nsamples = 2\nvalue = 9.2"] ;
224 -> 226 ;
227 [label="squared_error = 0.0\nsamples = 1\nvalue = 9.5"] ;
223 -> 227 ;
228 [label="czas_gry <= 52.5\nsquared_error = 0.117\nsamples = 6\nvalue = 9.0"] ;
218 -> 228 ;
229 [label="squared_error = 0.0\nsamples = 1\nvalue = 9.5"] ;
228 -> 229 ;
230 [label="podstawowe_przyjazny_dzieciom <= 0.5\nsquared_error = 0.08\nsamples = 5\nvalue = 8.9"] ;
228 -> 230 ;
231 [label="squared_error = 0.007\nsamples = 3\nvalue = 9.1"] ;
230 -> 231 ;
232 [label="squared_error = 0.04\nsamples = 2\nvalue = 8.6"] ;
230 -> 232 ;
233 [label="podstawowe_przyjazny_dzieciom <= 0.5\nsquared_error = 0.558\nsamples = 5\nvalue = 8.28"] ;
217 -> 233 ;
234 [label="squared_error = 0.136\nsamples = 3\nvalue = 8.433"] ;
233 -> 234 ;
235 [label="squared_error = 1.102\nsamples = 2\nvalue = 8.05"] ;
233 -> 235 ;
236 [label="czas_gry <= 62.5\nsquared_error = 0.444\nsamples = 28\nvalue = 8.896"] ;
156 -> 236 ;
237 [label="poziom_trudnosci_doświadczony <= 0.5\nsquared_error = 0.377\nsamples = 22\nvalue = 8.995"] ;
236 -> 237 ;
238 [label="kategoria_Thriller <= 0.5\nsquared_error = 0.413\nsamples = 19\nvalue = 9.042"] ;
237 -> 238 ;
239 [label="kategoria_Fabularny <= 0.5\nsquared_error = 0.268\nsamples = 14\nvalue = 9.107"] ;
238 -> 239 ;
240 [label="poziom_trudnosci_śr. zaawansowani <= 0.5\nsquared_error = 0.267\nsamples = 13\nvalue = 9.146"] ;
239 -> 240 ;
241 [label="kategoria_Przygodowy <= 0.5\nsquared_error = 0.569\nsamples = 3\nvalue = 8.867"] ;
240 -> 241 ;
242 [label="squared_error = 0.0\nsamples = 1\nvalue = 9.4"] ;
241 -> 242 ;
243 [label="squared_error = 0.64\nsamples = 2\nvalue = 8.6"] ;
241 -> 243 ;
244 [label="kategoria_Horror <= 0.5\nsquared_error = 0.146\nsamples = 10\nvalue = 9.23"] ;
240 -> 244 ;
245 [label="podstawowe_przyjazny_dzieciom <= 0.5\nsquared_error = 0.202\nsamples = 5\nvalue = 9.36"] ;
244 -> 245 ;
246 [label="squared_error = 0.232\nsamples = 4\nvalue = 9.425"] ;
245 -> 246 ;
247 [label="squared_error = -0.0\nsamples = 1\nvalue = 9.1"] ;
245 -> 247 ;
248 [label="squared_error = 0.056\nsamples = 5\nvalue = 9.1"] ;
244 -> 248 ;
249 [label="squared_error = -0.0\nsamples = 1\nvalue = 8.6"] ;
239 -> 249 ;
250 [label="poziom_trudnosci_śr. zaawansowani <= 0.5\nsquared_error = 0.774\nsamples = 5\nvalue = 8.86"] ;
238 -> 250 ;
251 [label="squared_error = 0.0\nsamples = 1\nvalue = 9.7"] ;
250 -> 251 ;
252 [label="squared_error = 0.747\nsamples = 4\nvalue = 8.65"] ;
250 -> 252 ;
253 [label="kategoria_Przygodowy <= 0.5\nsquared_error = 0.047\nsamples = 3\nvalue = 8.7"] ;
237 -> 253 ;
254 [label="squared_error = 0.04\nsamples = 2\nvalue = 8.8"] ;
253 -> 254 ;
255 [label="squared_error = 0.0\nsamples = 1\nvalue = 8.5"] ;
253 -> 255 ;
256 [label="czas_gry <= 67.5\nsquared_error = 0.522\nsamples = 6\nvalue = 8.533"] ;
236 -> 256 ;
257 [label="kategoria_Thriller <= 0.5\nsquared_error = 0.81\nsamples = 2\nvalue = 8.0"] ;
256 -> 257 ;
258 [label="squared_error = 0.0\nsamples = 1\nvalue = 8.9"] ;
257 -> 258 ;
259 [label="squared_error = 0.0\nsamples = 1\nvalue = 7.1"] ;
257 -> 259 ;
260 [label="kategoria_Horror <= 0.5\nsquared_error = 0.165\nsamples = 4\nvalue = 8.8"] ;
256 -> 260 ;
261 [label="poziom_trudnosci_śr. zaawansowani <= 0.5\nsquared_error = 0.002\nsamples = 3\nvalue = 9.033"] ;
260 -> 261 ;
262 [label="squared_error = 0.0\nsamples = 2\nvalue = 9.0"] ;
261 -> 262 ;
263 [label="squared_error = -0.0\nsamples = 1\nvalue = 9.1"] ;
261 -> 263 ;
264 [label="squared_error = -0.0\nsamples = 1\nvalue = 8.1"] ;
260 -> 264 ;
265 [label="podstawowe_nie_dla_kobiet_w_ciąży <= 0.5\nsquared_error = 1.169\nsamples = 6\nvalue = 7.95"] ;
155 -> 265 ;
266 [label="poziom_trudnosci_śr. zaawansowani <= 0.5\nsquared_error = 0.668\nsamples = 5\nvalue = 7.6"] ;
265 -> 266 ;
267 [label="squared_error = 0.635\nsamples = 4\nvalue = 7.4"] ;
266 -> 267 ;
268 [label="squared_error = 0.0\nsamples = 1\nvalue = 8.4"] ;
266 -> 268 ;
269 [label="squared_error = -0.0\nsamples = 1\nvalue = 9.7"] ;
265 -> 269 ;
270 [label="squared_error = 0.276\nsamples = 3\nvalue = 7.567"] ;
148 -> 270 ;
271 [label="squared_error = -0.0\nsamples = 2\nvalue = 10.0"] ;
147 -> 271 ;
272 [label="podstawowe_nie_dla_kobiet_w_ciąży <= 0.5\nsquared_error = 0.293\nsamples = 106\nvalue = 9.344"] ;
0 -> 272 [labeldistance=2.5, labelangle=-45, headlabel="False"] ;
273 [label="czas_gry <= 165.0\nsquared_error = 0.336\nsamples = 64\nvalue = 9.225"] ;
272 -> 273 ;
274 [label="czas_gry <= 105.0\nsquared_error = 0.317\nsamples = 63\nvalue = 9.244"] ;
273 -> 274 ;
275 [label="bezpieczeństwo_dostępny_żel_antybakteryjny <= 0.5\nsquared_error = 0.312\nsamples = 58\nvalue = 9.202"] ;
274 -> 275 ;
276 [label="czas_gry <= 85.0\nsquared_error = 0.392\nsamples = 20\nvalue = 9.05"] ;
275 -> 276 ;
277 [label="kategoria_Fabularny <= 0.5\nsquared_error = 0.414\nsamples = 14\nvalue = 8.85"] ;
276 -> 277 ;
278 [label="podstawowe_przyjazny_dzieciom <= 0.5\nsquared_error = 0.201\nsamples = 12\nvalue = 9.008"] ;
277 -> 278 ;
279 [label="kategoria_Fantasy <= 0.5\nsquared_error = 0.161\nsamples = 10\nvalue = 9.11"] ;
278 -> 279 ;
280 [label="kategoria_Kryminalny <= 0.5\nsquared_error = 0.084\nsamples = 8\nvalue = 9.225"] ;
279 -> 280 ;
281 [label="czas_gry <= 77.5\nsquared_error = 0.091\nsamples = 6\nvalue = 9.283"] ;
280 -> 281 ;
282 [label="kategoria_Przygodowy <= 0.5\nsquared_error = 0.092\nsamples = 4\nvalue = 9.375"] ;
281 -> 282 ;
283 [label="squared_error = 0.0\nsamples = 2\nvalue = 9.2"] ;
282 -> 283 ;
284 [label="squared_error = 0.122\nsamples = 2\nvalue = 9.55"] ;
282 -> 284 ;
285 [label="bezpieczeństwo_dezynfekowane_pokoje <= 0.5\nsquared_error = 0.04\nsamples = 2\nvalue = 9.1"] ;
281 -> 285 ;
286 [label="squared_error = 0.0\nsamples = 1\nvalue = 8.9"] ;
285 -> 286 ;
287 [label="squared_error = -0.0\nsamples = 1\nvalue = 9.3"] ;
285 -> 287 ;
288 [label="squared_error = 0.022\nsamples = 2\nvalue = 9.05"] ;
280 -> 288 ;
289 [label="poziom_trudnosci_śr. zaawansowani <= 0.5\nsquared_error = 0.203\nsamples = 2\nvalue = 8.65"] ;
279 -> 289 ;
290 [label="squared_error = 0.0\nsamples = 1\nvalue = 8.2"] ;
289 -> 290 ;
291 [label="squared_error = 0.0\nsamples = 1\nvalue = 9.1"] ;
289 -> 291 ;
292 [label="squared_error = 0.09\nsamples = 2\nvalue = 8.5"] ;
278 -> 292 ;
293 [label="podstawowe_przyjazny_dzieciom <= 0.5\nsquared_error = 0.64\nsamples = 2\nvalue = 7.9"] ;
277 -> 293 ;
294 [label="squared_error = 0.0\nsamples = 1\nvalue = 7.1"] ;
293 -> 294 ;
295 [label="squared_error = 0.0\nsamples = 1\nvalue = 8.7"] ;
293 -> 295 ;
296 [label="podstawowe_przyjazny_dzieciom <= 0.5\nsquared_error = 0.031\nsamples = 6\nvalue = 9.517"] ;
276 -> 296 ;
297 [label="kategoria_Przygodowy <= 0.5\nsquared_error = 0.002\nsamples = 3\nvalue = 9.367"] ;
296 -> 297 ;
298 [label="squared_error = 0.0\nsamples = 1\nvalue = 9.4"] ;
297 -> 298 ;
299 [label="squared_error = 0.002\nsamples = 2\nvalue = 9.35"] ;
297 -> 299 ;
300 [label="kategoria_Przygodowy <= 0.5\nsquared_error = 0.016\nsamples = 3\nvalue = 9.667"] ;
296 -> 300 ;
301 [label="squared_error = 0.0\nsamples = 1\nvalue = 9.7"] ;
300 -> 301 ;
302 [label="squared_error = 0.023\nsamples = 2\nvalue = 9.65"] ;
300 -> 302 ;
303 [label="czas_gry <= 77.5\nsquared_error = 0.251\nsamples = 38\nvalue = 9.282"] ;
275 -> 303 ;
304 [label="kategoria_Fabularny <= 0.5\nsquared_error = 0.18\nsamples = 26\nvalue = 9.396"] ;
303 -> 304 ;
305 [label="bezpieczeństwo_dezynfekowane_pokoje <= 0.5\nsquared_error = 0.187\nsamples = 23\nvalue = 9.352"] ;
304 -> 305 ;
306 [label="squared_error = 0.04\nsamples = 2\nvalue = 9.0"] ;
305 -> 306 ;
307 [label="poziom_trudnosci_śr. zaawansowani <= 0.5\nsquared_error = 0.188\nsamples = 21\nvalue = 9.386"] ;
305 -> 307 ;
308 [label="kategoria_Fantasy <= 0.5\nsquared_error = 0.294\nsamples = 7\nvalue = 9.2"] ;
307 -> 308 ;
309 [label="podstawowe_przyjazny_dzieciom <= 0.5\nsquared_error = 0.273\nsamples = 6\nvalue = 9.1"] ;
308 -> 309 ;
310 [label="kategoria_Thriller <= 0.5\nsquared_error = 0.134\nsamples = 5\nvalue = 9.28"] ;
309 -> 310 ;
311 [label="kategoria_Kryminalny <= 0.5\nsquared_error = 0.095\nsamples = 4\nvalue = 9.4"] ;
310 -> 311 ;
312 [label="squared_error = 0.087\nsamples = 3\nvalue = 9.3"] ;
311 -> 312 ;
313 [label="squared_error = 0.0\nsamples = 1\nvalue = 9.7"] ;
311 -> 313 ;
314 [label="squared_error = -0.0\nsamples = 1\nvalue = 8.8"] ;
310 -> 314 ;
315 [label="squared_error = -0.0\nsamples = 1\nvalue = 8.2"] ;
309 -> 315 ;
316 [label="squared_error = 0.0\nsamples = 1\nvalue = 9.8"] ;
308 -> 316 ;
317 [label="kategoria_Horror <= 0.5\nsquared_error = 0.109\nsamples = 14\nvalue = 9.479"] ;
307 -> 317 ;
318 [label="kategoria_Przygodowy <= 0.5\nsquared_error = 0.109\nsamples = 13\nvalue = 9.454"] ;
317 -> 318 ;
319 [label="kategoria_Kryminalny <= 0.5\nsquared_error = 0.055\nsamples = 4\nvalue = 9.3"] ;
318 -> 319 ;
320 [label="squared_error = 0.0\nsamples = 2\nvalue = 9.2"] ;
319 -> 320 ;
321 [label="squared_error = 0.09\nsamples = 2\nvalue = 9.4"] ;
319 -> 321 ;
322 [label="podstawowe_przyjazny_dzieciom <= 0.5\nsquared_error = 0.117\nsamples = 9\nvalue = 9.522"] ;
318 -> 322 ;
323 [label="squared_error = 0.118\nsamples = 5\nvalue = 9.48"] ;
322 -> 323 ;
324 [label="squared_error = 0.112\nsamples = 4\nvalue = 9.575"] ;
322 -> 324 ;
325 [label="squared_error = 0.0\nsamples = 1\nvalue = 9.8"] ;
317 -> 325 ;
326 [label="poziom_trudnosci_doświadczony <= 0.5\nsquared_error = 0.002\nsamples = 3\nvalue = 9.733"] ;
304 -> 326 ;
327 [label="podstawowe_przyjazny_dzieciom <= 0.5\nsquared_error = 0.002\nsamples = 2\nvalue = 9.75"] ;
326 -> 327 ;
328 [label="squared_error = 0.0\nsamples = 1\nvalue = 9.8"] ;
327 -> 328 ;
329 [label="squared_error = -0.0\nsamples = 1\nvalue = 9.7"] ;
327 -> 329 ;
330 [label="squared_error = -0.0\nsamples = 1\nvalue = 9.7"] ;
326 -> 330 ;
331 [label="kategoria_Kryminalny <= 0.5\nsquared_error = 0.314\nsamples = 12\nvalue = 9.033"] ;
303 -> 331 ;
332 [label="czas_gry <= 85.0\nsquared_error = 0.268\nsamples = 11\nvalue = 8.955"] ;
331 -> 332 ;
333 [label="squared_error = 0.0\nsamples = 1\nvalue = 8.4"] ;
332 -> 333 ;
334 [label="kategoria_Fantasy <= 0.5\nsquared_error = 0.261\nsamples = 10\nvalue = 9.01"] ;
332 -> 334 ;
335 [label="podstawowe_przyjazny_dzieciom <= 0.5\nsquared_error = 0.302\nsamples = 8\nvalue = 8.95"] ;
334 -> 335 ;
336 [label="kategoria_Fabularny <= 0.5\nsquared_error = 0.296\nsamples = 7\nvalue = 9.029"] ;
335 -> 336 ;
337 [label="poziom_trudnosci_początkujący <= 0.5\nsquared_error = 0.303\nsamples = 6\nvalue = 8.95"] ;
336 -> 337 ;
338 [label="kategoria_Futurystyczny <= 0.5\nsquared_error = 0.362\nsamples = 5\nvalue = 8.96"] ;
337 -> 338 ;
339 [label="squared_error = 0.453\nsamples = 4\nvalue = 8.95"] ;
338 -> 339 ;
340 [label="squared_error = 0.0\nsamples = 1\nvalue = 9.0"] ;
338 -> 340 ;
341 [label="squared_error = 0.0\nsamples = 1\nvalue = 8.9"] ;
337 -> 341 ;
342 [label="squared_error = 0.0\nsamples = 1\nvalue = 9.5"] ;
336 -> 342 ;
343 [label="squared_error = -0.0\nsamples = 1\nvalue = 8.4"] ;
335 -> 343 ;
344 [label="poziom_trudnosci_doświadczony <= 0.5\nsquared_error = 0.023\nsamples = 2\nvalue = 9.25"] ;
334 -> 344 ;
345 [label="squared_error = 0.0\nsamples = 1\nvalue = 9.1"] ;
344 -> 345 ;
346 [label="squared_error = 0.0\nsamples = 1\nvalue = 9.4"] ;
344 -> 346 ;
347 [label="squared_error = -0.0\nsamples = 1\nvalue = 9.9"] ;
331 -> 347 ;
348 [label="bezpieczeństwo_dezynfekowane_pokoje <= 0.5\nsquared_error = 0.11\nsamples = 5\nvalue = 9.74"] ;
274 -> 348 ;
349 [label="bezpieczeństwo_dostępny_żel_antybakteryjny <= 0.5\nsquared_error = 0.022\nsamples = 2\nvalue = 9.35"] ;
348 -> 349 ;
350 [label="squared_error = 0.0\nsamples = 1\nvalue = 9.5"] ;
349 -> 350 ;
351 [label="squared_error = 0.0\nsamples = 1\nvalue = 9.2"] ;
349 -> 351 ;
352 [label="squared_error = -0.0\nsamples = 3\nvalue = 10.0"] ;
348 -> 352 ;
353 [label="squared_error = 0.0\nsamples = 1\nvalue = 8.0"] ;
273 -> 353 ;
354 [label="podstawowe_przyjazny_dzieciom <= 0.5\nsquared_error = 0.173\nsamples = 42\nvalue = 9.526"] ;
272 -> 354 ;
355 [label="kategoria_Thriller <= 0.5\nsquared_error = 0.176\nsamples = 37\nvalue = 9.478"] ;
354 -> 355 ;
356 [label="kategoria_Fabularny <= 0.5\nsquared_error = 0.236\nsamples = 22\nvalue = 9.368"] ;
355 -> 356 ;
357 [label="bezpieczeństwo_dostępny_żel_antybakteryjny <= 0.5\nsquared_error = 0.237\nsamples = 17\nvalue = 9.306"] ;
356 -> 357 ;
358 [label="czas_gry <= 95.0\nsquared_error = 0.186\nsamples = 10\nvalue = 9.2"] ;
357 -> 358 ;
359 [label="kategoria_Przygodowy <= 0.5\nsquared_error = 0.16\nsamples = 7\nvalue = 9.1"] ;
358 -> 359 ;
360 [label="poziom_trudnosci_początkujący <= 0.5\nsquared_error = 0.02\nsamples = 3\nvalue = 8.9"] ;
359 -> 360 ;
361 [label="squared_error = 0.0\nsamples = 2\nvalue = 8.8"] ;
360 -> 361 ;
362 [label="squared_error = -0.0\nsamples = 1\nvalue = 9.1"] ;
360 -> 362 ;
363 [label="poziom_trudnosci_śr. zaawansowani <= 0.5\nsquared_error = 0.213\nsamples = 4\nvalue = 9.25"] ;
359 -> 363 ;
364 [label="squared_error = 0.0\nsamples = 1\nvalue = 8.9"] ;
363 -> 364 ;
365 [label="czas_gry <= 82.5\nsquared_error = 0.229\nsamples = 3\nvalue = 9.367"] ;
363 -> 365 ;
366 [label="squared_error = 0.0\nsamples = 1\nvalue = 9.6"] ;
365 -> 366 ;
367 [label="squared_error = 0.302\nsamples = 2\nvalue = 9.25"] ;
365 -> 367 ;
368 [label="poziom_trudnosci_doświadczony <= 0.5\nsquared_error = 0.169\nsamples = 3\nvalue = 9.433"] ;
358 -> 368 ;
369 [label="squared_error = 0.09\nsamples = 2\nvalue = 9.2"] ;
368 -> 369 ;
370 [label="squared_error = 0.0\nsamples = 1\nvalue = 9.9"] ;
368 -> 370 ;
371 [label="czas_gry <= 82.5\nsquared_error = 0.271\nsamples = 7\nvalue = 9.457"] ;
357 -> 371 ;
372 [label="poziom_trudnosci_śr. zaawansowani <= 0.5\nsquared_error = 0.392\nsamples = 4\nvalue = 9.275"] ;
371 -> 372 ;
373 [label="squared_error = 0.0\nsamples = 1\nvalue = 9.7"] ;
372 -> 373 ;
374 [label="bezpieczeństwo_dezynfekowane_pokoje <= 0.5\nsquared_error = 0.442\nsamples = 3\nvalue = 9.133"] ;
372 -> 374 ;
375 [label="squared_error = 0.0\nsamples = 1\nvalue = 9.5"] ;
374 -> 375 ;
376 [label="squared_error = 0.562\nsamples = 2\nvalue = 8.95"] ;
374 -> 376 ;
377 [label="poziom_trudnosci_doświadczony <= 0.5\nsquared_error = 0.007\nsamples = 3\nvalue = 9.7"] ;
371 -> 377 ;
378 [label="squared_error = 0.0\nsamples = 1\nvalue = 9.8"] ;
377 -> 378 ;
379 [label="kategoria_Horror <= 0.5\nsquared_error = 0.002\nsamples = 2\nvalue = 9.65"] ;
377 -> 379 ;
380 [label="squared_error = 0.0\nsamples = 1\nvalue = 9.7"] ;
379 -> 380 ;
381 [label="squared_error = 0.0\nsamples = 1\nvalue = 9.6"] ;
379 -> 381 ;
382 [label="czas_gry <= 77.5\nsquared_error = 0.174\nsamples = 5\nvalue = 9.58"] ;
356 -> 382 ;
383 [label="bezpieczeństwo_dostępny_żel_antybakteryjny <= 0.5\nsquared_error = 0.007\nsamples = 3\nvalue = 9.9"] ;
382 -> 383 ;
384 [label="squared_error = 0.0\nsamples = 1\nvalue = 10.0"] ;
383 -> 384 ;
385 [label="squared_error = 0.002\nsamples = 2\nvalue = 9.85"] ;
383 -> 385 ;
386 [label="poziom_trudnosci_początkujący <= 0.5\nsquared_error = 0.04\nsamples = 2\nvalue = 9.1"] ;
382 -> 386 ;
387 [label="squared_error = 0.0\nsamples = 1\nvalue = 8.9"] ;
386 -> 387 ;
388 [label="squared_error = -0.0\nsamples = 1\nvalue = 9.3"] ;
386 -> 388 ;
389 [label="poziom_trudnosci_doświadczony <= 0.5\nsquared_error = 0.044\nsamples = 15\nvalue = 9.64"] ;
355 -> 389 ;
390 [label="czas_gry <= 110.5\nsquared_error = 0.008\nsamples = 10\nvalue = 9.72"] ;
389 -> 390 ;
391 [label="czas_gry <= 95.5\nsquared_error = 0.007\nsamples = 9\nvalue = 9.733"] ;
390 -> 391 ;
392 [label="poziom_trudnosci_eksperci <= 0.5\nsquared_error = 0.004\nsamples = 8\nvalue = 9.712"] ;
391 -> 392 ;
393 [label="czas_gry <= 82.5\nsquared_error = 0.002\nsamples = 7\nvalue = 9.729"] ;
392 -> 393 ;
394 [label="bezpieczeństwo_dezynfekowane_pokoje <= 0.5\nsquared_error = 0.002\nsamples = 5\nvalue = 9.74"] ;
393 -> 394 ;
395 [label="squared_error = 0.0\nsamples = 1\nvalue = 9.8"] ;
394 -> 395 ;
396 [label="poziom_trudnosci_początkujący <= 0.5\nsquared_error = 0.002\nsamples = 4\nvalue = 9.725"] ;
394 -> 396 ;
397 [label="squared_error = 0.002\nsamples = 3\nvalue = 9.733"] ;
396 -> 397 ;
398 [label="squared_error = -0.0\nsamples = 1\nvalue = 9.7"] ;
396 -> 398 ;
399 [label="squared_error = -0.0\nsamples = 2\nvalue = 9.7"] ;
393 -> 399 ;
400 [label="squared_error = 0.0\nsamples = 1\nvalue = 9.6"] ;
392 -> 400 ;
401 [label="squared_error = -0.0\nsamples = 1\nvalue = 9.9"] ;
391 -> 401 ;
402 [label="squared_error = 0.0\nsamples = 1\nvalue = 9.6"] ;
390 -> 402 ;
403 [label="czas_gry <= 85.0\nsquared_error = 0.078\nsamples = 5\nvalue = 9.48"] ;
389 -> 403 ;
404 [label="czas_gry <= 77.5\nsquared_error = 0.096\nsamples = 3\nvalue = 9.367"] ;
403 -> 404 ;
405 [label="bezpieczeństwo_dostępny_żel_antybakteryjny <= 0.5\nsquared_error = 0.09\nsamples = 2\nvalue = 9.5"] ;
404 -> 405 ;
406 [label="squared_error = 0.0\nsamples = 1\nvalue = 9.2"] ;
405 -> 406 ;
407 [label="squared_error = 0.0\nsamples = 1\nvalue = 9.8"] ;
405 -> 407 ;
408 [label="squared_error = 0.0\nsamples = 1\nvalue = 9.1"] ;
404 -> 408 ;
409 [label="squared_error = 0.002\nsamples = 2\nvalue = 9.65"] ;
403 -> 409 ;
410 [label="poziom_trudnosci_doświadczony <= 0.5\nsquared_error = 0.014\nsamples = 5\nvalue = 9.88"] ;
354 -> 410 ;
411 [label="kategoria_Przygodowy <= 0.5\nsquared_error = 0.012\nsamples = 4\nvalue = 9.85"] ;
410 -> 411 ;
412 [label="squared_error = 0.0\nsamples = 1\nvalue = 9.8"] ;
411 -> 412 ;
413 [label="squared_error = 0.016\nsamples = 3\nvalue = 9.867"] ;
411 -> 413 ;
414 [label="squared_error = 0.0\nsamples = 1\nvalue = 10.0"] ;
410 -> 414 ;
}