digraph Tree {
node [shape=box, fontname="helvetica"] ;
edge [fontname="helvetica"] ;
0 [label="miasto_Gorzów Wielkopolski <= 0.5\nsquared_error = 1.254\nsamples = 457\nvalue = 8.574"] ;
1 [label="miasto_Kraków <= 0.5\nsquared_error = 1.23\nsamples = 451\nvalue = 8.596"] ;
0 -> 1 [labeldistance=2.5, labelangle=45, headlabel="True"] ;
2 [label="miasto_Żory <= 0.5\nsquared_error = 1.134\nsamples = 414\nvalue = 8.648"] ;
1 -> 2 ;
3 [label="poziom_trudnosci_początkujący <= 0.5\nsquared_error = 1.105\nsamples = 411\nvalue = 8.663"] ;
2 -> 3 ;
4 [label="miasto_Szczecin <= 0.5\nsquared_error = 1.024\nsamples = 319\nvalue = 8.747"] ;
3 -> 4 ;
5 [label="miasto_Warszawa <= 0.5\nsquared_error = 0.902\nsamples = 315\nvalue = 8.77"] ;
4 -> 5 ;
6 [label="miasto_Iława <= 0.5\nsquared_error = 0.8\nsamples = 271\nvalue = 8.842"] ;
5 -> 6 ;
7 [label="miasto_Opole <= 0.5\nsquared_error = 0.764\nsamples = 270\nvalue = 8.854"] ;
6 -> 7 ;
8 [label="miasto_Nowy Sącz <= 0.5\nsquared_error = 0.73\nsamples = 268\nvalue = 8.871"] ;
7 -> 8 ;
9 [label="miasto_Tarnów <= 0.5\nsquared_error = 0.654\nsamples = 260\nvalue = 8.904"] ;
8 -> 9 ;
10 [label="miasto_Skierniewice <= 0.5\nsquared_error = 0.619\nsamples = 259\nvalue = 8.916"] ;
9 -> 10 ;
11 [label="miasto_Kluczbork <= 0.5\nsquared_error = 0.578\nsamples = 257\nvalue = 8.933"] ;
10 -> 11 ;
12 [label="miasto_Giżycko <= 0.5\nsquared_error = 0.553\nsamples = 256\nvalue = 8.943"] ;
11 -> 12 ;
13 [label="miasto_Karpacz <= 0.5\nsquared_error = 0.528\nsamples = 254\nvalue = 8.956"] ;
12 -> 13 ;
14 [label="miasto_Bielsko-Biała <= 0.5\nsquared_error = 0.505\nsamples = 252\nvalue = 8.968"] ;
13 -> 14 ;
15 [label="miasto_Wisła <= 0.5\nsquared_error = 0.465\nsamples = 242\nvalue = 8.996"] ;
14 -> 15 ;
16 [label="miasto_Słupsk <= 0.5\nsquared_error = 0.442\nsamples = 239\nvalue = 9.012"] ;
15 -> 16 ;
17 [label="miasto_Białystok <= 0.5\nsquared_error = 0.433\nsamples = 237\nvalue = 9.022"] ;
16 -> 17 ;
18 [label="miasto_Zamość <= 0.5\nsquared_error = 0.403\nsamples = 231\nvalue = 9.038"] ;
17 -> 18 ;
19 [label="miasto_Bydgoszcz <= 0.5\nsquared_error = 0.39\nsamples = 229\nvalue = 9.045"] ;
18 -> 19 ;
20 [label="miasto_Grudziądz <= 0.5\nsquared_error = 0.396\nsamples = 214\nvalue = 9.025"] ;
19 -> 20 ;
21 [label="miasto_Rybnik <= 0.5\nsquared_error = 0.393\nsamples = 212\nvalue = 9.017"] ;
20 -> 21 ;
22 [label="miasto_Janów Lubelski <= 0.5\nsquared_error = 0.39\nsamples = 207\nvalue = 9.005"] ;
21 -> 22 ;
23 [label="miasto_Kielce <= 0.5\nsquared_error = 0.387\nsamples = 205\nvalue = 9.012"] ;
22 -> 23 ;
24 [label="miasto_Jedlina-Zdrój <= 0.5\nsquared_error = 0.385\nsamples = 204\nvalue = 9.007"] ;
23 -> 24 ;
25 [label="miasto_Swarzędz <= 0.5\nsquared_error = 0.382\nsamples = 203\nvalue = 9.002"] ;
24 -> 25 ;
26 [label="miasto_Gliwice <= 0.5\nsquared_error = 0.38\nsamples = 201\nvalue = 8.996"] ;
25 -> 26 ;
27 [label="miasto_Piła <= 0.5\nsquared_error = 0.381\nsamples = 195\nvalue = 8.984"] ;
26 -> 27 ;
28 [label="miasto_Olsztyn <= 0.5\nsquared_error = 0.379\nsamples = 192\nvalue = 8.975"] ;
27 -> 28 ;
29 [label="miasto_Pszczyna <= 0.5\nsquared_error = 0.371\nsamples = 186\nvalue = 8.986"] ;
28 -> 29 ;
30 [label="kategoria_Fabularny <= 0.5\nsquared_error = 0.369\nsamples = 185\nvalue = 8.982"] ;
29 -> 30 ;
31 [label="miasto_Katowice <= 0.5\nsquared_error = 0.36\nsamples = 157\nvalue = 9.008"] ;
30 -> 31 ;
32 [label="miasto_Zabrze <= 0.5\nsquared_error = 0.355\nsamples = 154\nvalue = 9.018"] ;
31 -> 32 ;
33 [label="poziom_trudnosci_na pierwszy raz <= 0.5\nsquared_error = 0.356\nsamples = 152\nvalue = 9.011"] ;
32 -> 33 ;
34 [label="miasto_Wrocław <= 0.5\nsquared_error = 0.355\nsamples = 151\nvalue = 9.015"] ;
33 -> 34 ;
35 [label="miasto_Legnica <= 0.5\nsquared_error = 0.352\nsamples = 120\nvalue = 8.987"] ;
34 -> 35 ;
36 [label="miasto_Częstochowa <= 0.5\nsquared_error = 0.351\nsamples = 118\nvalue = 8.978"] ;
35 -> 36 ;
37 [label="miasto_Poznań <= 0.5\nsquared_error = 0.355\nsamples = 115\nvalue = 8.968"] ;
36 -> 37 ;
38 [label="poziom_trudnosci_śr. zaawansowani <= 0.5\nsquared_error = 0.312\nsamples = 78\nvalue = 8.921"] ;
37 -> 38 ;
39 [label="miasto_Łódź <= 0.5\nsquared_error = 0.345\nsamples = 25\nvalue = 8.828"] ;
38 -> 39 ;
40 [label="miasto_Rzeszów <= 0.5\nsquared_error = 0.289\nsamples = 23\nvalue = 8.9"] ;
39 -> 40 ;
41 [label="kategoria_Kryminalny <= 0.5\nsquared_error = 0.254\nsamples = 22\nvalue = 8.945"] ;
40 -> 41 ;
42 [label="miasto_Gdynia <= 0.5\nsquared_error = 0.257\nsamples = 19\nvalue = 8.884"] ;
41 -> 42 ;
43 [label="miasto_Stargard <= 0.5\nsquared_error = 0.07\nsamples = 15\nvalue = 8.953"] ;
42 -> 43 ;
44 [label="kategoria_Historyczny <= 0.5\nsquared_error = 0.06\nsamples = 14\nvalue = 8.986"] ;
43 -> 44 ;
45 [label="miasto_Szczyrk <= 0.5\nsquared_error = 0.042\nsamples = 13\nvalue = 8.946"] ;
44 -> 45 ;
46 [label="miasto_Lublin <= 0.5\nsquared_error = 0.038\nsamples = 11\nvalue = 8.982"] ;
45 -> 46 ;
47 [label="miasto_Radom <= 0.5\nsquared_error = 0.036\nsamples = 10\nvalue = 8.96"] ;
46 -> 47 ;
48 [label="miasto_Zakopane <= 0.5\nsquared_error = 0.033\nsamples = 9\nvalue = 8.933"] ;
47 -> 48 ;
49 [label="miasto_Tczew <= 0.5\nsquared_error = 0.028\nsamples = 8\nvalue = 8.9"] ;
48 -> 49 ;
50 [label="kategoria_Thriller <= 0.5\nsquared_error = 0.03\nsamples = 7\nvalue = 8.914"] ;
49 -> 50 ;
51 [label="squared_error = 0.003\nsamples = 2\nvalue = 8.95"] ;
50 -> 51 ;
52 [label="poziom_trudnosci_doświadczony <= 0.5\nsquared_error = 0.04\nsamples = 5\nvalue = 8.9"] ;
50 -> 52 ;
53 [label="squared_error = 0.0\nsamples = 1\nvalue = 8.9"] ;
52 -> 53 ;
54 [label="squared_error = 0.05\nsamples = 4\nvalue = 8.9"] ;
52 -> 54 ;
55 [label="squared_error = 0.0\nsamples = 1\nvalue = 8.8"] ;
49 -> 55 ;
56 [label="squared_error = -0.0\nsamples = 1\nvalue = 9.2"] ;
48 -> 56 ;
57 [label="squared_error = -0.0\nsamples = 1\nvalue = 9.2"] ;
47 -> 57 ;
58 [label="squared_error = 0.0\nsamples = 1\nvalue = 9.2"] ;
46 -> 58 ;
59 [label="squared_error = 0.023\nsamples = 2\nvalue = 8.75"] ;
45 -> 59 ;
60 [label="squared_error = -0.0\nsamples = 1\nvalue = 9.5"] ;
44 -> 60 ;
61 [label="squared_error = 0.0\nsamples = 1\nvalue = 8.5"] ;
43 -> 61 ;
62 [label="kategoria_Horror <= 0.5\nsquared_error = 0.872\nsamples = 4\nvalue = 8.625"] ;
42 -> 62 ;
63 [label="kategoria_Fantasy <= 0.5\nsquared_error = 1.129\nsamples = 3\nvalue = 8.533"] ;
62 -> 63 ;
64 [label="squared_error = 0.0\nsamples = 1\nvalue = 8.6"] ;
63 -> 64 ;
65 [label="squared_error = 1.69\nsamples = 2\nvalue = 8.5"] ;
63 -> 65 ;
66 [label="squared_error = 0.0\nsamples = 1\nvalue = 8.9"] ;
62 -> 66 ;
67 [label="miasto_Sopot <= 0.5\nsquared_error = 0.062\nsamples = 3\nvalue = 9.333"] ;
41 -> 67 ;
68 [label="miasto_Stargard <= 0.5\nsquared_error = 0.01\nsamples = 2\nvalue = 9.5"] ;
67 -> 68 ;
69 [label="squared_error = 0.0\nsamples = 1\nvalue = 9.4"] ;
68 -> 69 ;
70 [label="squared_error = 0.0\nsamples = 1\nvalue = 9.6"] ;
68 -> 70 ;
71 [label="squared_error = -0.0\nsamples = 1\nvalue = 9.0"] ;
67 -> 71 ;
72 [label="squared_error = -0.0\nsamples = 1\nvalue = 7.9"] ;
40 -> 72 ;
73 [label="squared_error = 0.25\nsamples = 2\nvalue = 8.0"] ;
39 -> 73 ;
74 [label="kategoria_Fantasy <= 0.5\nsquared_error = 0.291\nsamples = 53\nvalue = 8.964"] ;
38 -> 74 ;
75 [label="miasto_Radom <= 0.5\nsquared_error = 0.303\nsamples = 48\nvalue = 8.933"] ;
74 -> 75 ;
76 [label="miasto_Toruń <= 0.5\nsquared_error = 0.306\nsamples = 46\nvalue = 8.952"] ;
75 -> 76 ;
77 [label="miasto_Sopot <= 0.5\nsquared_error = 0.317\nsamples = 42\nvalue = 8.979"] ;
76 -> 77 ;
78 [label="miasto_Lublin <= 0.5\nsquared_error = 0.327\nsamples = 40\nvalue = 8.962"] ;
77 -> 78 ;
79 [label="miasto_Bytom <= 0.5\nsquared_error = 0.328\nsamples = 38\nvalue = 8.976"] ;
78 -> 79 ;
80 [label="miasto_Leśna <= 0.5\nsquared_error = 0.319\nsamples = 36\nvalue = 8.989"] ;
79 -> 80 ;
81 [label="kategoria_Kryminalny <= 0.5\nsquared_error = 0.326\nsamples = 35\nvalue = 8.997"] ;
80 -> 81 ;
82 [label="miasto_Radomsko <= 0.5\nsquared_error = 0.348\nsamples = 32\nvalue = 8.972"] ;
81 -> 82 ;
83 [label="kategoria_Horror <= 0.5\nsquared_error = 0.302\nsamples = 30\nvalue = 8.983"] ;
82 -> 83 ;
84 [label="miasto_Chorzów <= 0.5\nsquared_error = 0.268\nsamples = 26\nvalue = 9.015"] ;
83 -> 84 ;
85 [label="kategoria_Abstrakcyjny <= 0.5\nsquared_error = 0.279\nsamples = 24\nvalue = 8.988"] ;
84 -> 85 ;
86 [label="miasto_Tczew <= 0.5\nsquared_error = 0.286\nsamples = 22\nvalue = 9.005"] ;
85 -> 86 ;
87 [label="miasto_Łódź <= 0.5\nsquared_error = 0.287\nsamples = 21\nvalue = 8.981"] ;
86 -> 87 ;
88 [label="kategoria_Thriller <= 0.5\nsquared_error = 0.267\nsamples = 12\nvalue = 8.942"] ;
87 -> 88 ;
89 [label="miasto_Gdańsk <= 0.5\nsquared_error = 0.238\nsamples = 7\nvalue = 8.786"] ;
88 -> 89 ;
90 [label="miasto_Konin <= 0.5\nsquared_error = 0.032\nsamples = 4\nvalue = 8.825"] ;
89 -> 90 ;
91 [label="squared_error = 0.0\nsamples = 2\nvalue = 8.8"] ;
90 -> 91 ;
92 [label="squared_error = 0.063\nsamples = 2\nvalue = 8.85"] ;
90 -> 92 ;
93 [label="squared_error = 0.509\nsamples = 3\nvalue = 8.733"] ;
89 -> 93 ;
94 [label="miasto_Gdańsk <= 0.5\nsquared_error = 0.226\nsamples = 5\nvalue = 9.16"] ;
88 -> 94 ;
95 [label="miasto_Szczyrk <= 0.5\nsquared_error = 0.192\nsamples = 4\nvalue = 9.025"] ;
94 -> 95 ;
96 [label="squared_error = 0.249\nsamples = 3\nvalue = 9.067"] ;
95 -> 96 ;
97 [label="squared_error = 0.0\nsamples = 1\nvalue = 8.9"] ;
95 -> 97 ;
98 [label="squared_error = -0.0\nsamples = 1\nvalue = 9.7"] ;
94 -> 98 ;
99 [label="kategoria_Thriller <= 0.5\nsquared_error = 0.309\nsamples = 9\nvalue = 9.033"] ;
87 -> 99 ;
100 [label="squared_error = 0.099\nsamples = 6\nvalue = 9.133"] ;
99 -> 100 ;
101 [label="squared_error = 0.669\nsamples = 3\nvalue = 8.833"] ;
99 -> 101 ;
102 [label="squared_error = 0.0\nsamples = 1\nvalue = 9.5"] ;
86 -> 102 ;
103 [label="miasto_Gdańsk <= 0.5\nsquared_error = 0.16\nsamples = 2\nvalue = 8.8"] ;
85 -> 103 ;
104 [label="squared_error = 0.0\nsamples = 1\nvalue = 8.4"] ;
103 -> 104 ;
105 [label="squared_error = -0.0\nsamples = 1\nvalue = 9.2"] ;
103 -> 105 ;
106 [label="kategoria_Przygodowy <= 0.5\nsquared_error = 0.022\nsamples = 2\nvalue = 9.35"] ;
84 -> 106 ;
107 [label="squared_error = 0.0\nsamples = 1\nvalue = 9.2"] ;
106 -> 107 ;
108 [label="squared_error = 0.0\nsamples = 1\nvalue = 9.5"] ;
106 -> 108 ;
109 [label="miasto_Chorzów <= 0.5\nsquared_error = 0.472\nsamples = 4\nvalue = 8.775"] ;
83 -> 109 ;
110 [label="miasto_Gdańsk <= 0.5\nsquared_error = 0.427\nsamples = 3\nvalue = 9.0"] ;
109 -> 110 ;
111 [label="squared_error = 0.64\nsamples = 2\nvalue = 9.0"] ;
110 -> 111 ;
112 [label="squared_error = 0.0\nsamples = 1\nvalue = 9.0"] ;
110 -> 112 ;
113 [label="squared_error = -0.0\nsamples = 1\nvalue = 8.1"] ;
109 -> 113 ;
114 [label="kategoria_Horror <= 0.5\nsquared_error = 1.0\nsamples = 2\nvalue = 8.8"] ;
82 -> 114 ;
115 [label="squared_error = 0.0\nsamples = 1\nvalue = 7.8"] ;
114 -> 115 ;
116 [label="squared_error = 0.0\nsamples = 1\nvalue = 9.8"] ;
114 -> 116 ;
117 [label="miasto_Gdańsk <= 0.5\nsquared_error = 0.016\nsamples = 3\nvalue = 9.267"] ;
81 -> 117 ;
118 [label="miasto_Radomsko <= 0.5\nsquared_error = 0.002\nsamples = 2\nvalue = 9.35"] ;
117 -> 118 ;
119 [label="squared_error = 0.0\nsamples = 1\nvalue = 9.4"] ;
118 -> 119 ;
120 [label="squared_error = -0.0\nsamples = 1\nvalue = 9.3"] ;
118 -> 120 ;
121 [label="squared_error = -0.0\nsamples = 1\nvalue = 9.1"] ;
117 -> 121 ;
122 [label="squared_error = 0.0\nsamples = 1\nvalue = 8.7"] ;
80 -> 122 ;
123 [label="kategoria_Przygodowy <= 0.5\nsquared_error = 0.422\nsamples = 2\nvalue = 8.75"] ;
79 -> 123 ;
124 [label="squared_error = 0.0\nsamples = 1\nvalue = 8.1"] ;
123 -> 124 ;
125 [label="squared_error = 0.0\nsamples = 1\nvalue = 9.4"] ;
123 -> 125 ;
126 [label="squared_error = 0.25\nsamples = 2\nvalue = 8.7"] ;
78 -> 126 ;
127 [label="kategoria_Horror <= 0.5\nsquared_error = 0.01\nsamples = 2\nvalue = 9.3"] ;
77 -> 127 ;
128 [label="squared_error = 0.0\nsamples = 1\nvalue = 9.4"] ;
127 -> 128 ;
129 [label="squared_error = -0.0\nsamples = 1\nvalue = 9.2"] ;
127 -> 129 ;
130 [label="squared_error = 0.097\nsamples = 4\nvalue = 8.675"] ;
76 -> 130 ;
131 [label="kategoria_Abstrakcyjny <= 0.5\nsquared_error = 0.04\nsamples = 2\nvalue = 8.5"] ;
75 -> 131 ;
132 [label="squared_error = 0.0\nsamples = 1\nvalue = 8.7"] ;
131 -> 132 ;
133 [label="squared_error = -0.0\nsamples = 1\nvalue = 8.3"] ;
131 -> 133 ;
134 [label="miasto_Rzeszów <= 0.5\nsquared_error = 0.078\nsamples = 5\nvalue = 9.26"] ;
74 -> 134 ;
135 [label="miasto_Gdynia <= 0.5\nsquared_error = 0.062\nsamples = 4\nvalue = 9.175"] ;
134 -> 135 ;
136 [label="miasto_Zakopane <= 0.5\nsquared_error = 0.002\nsamples = 3\nvalue = 9.033"] ;
135 -> 136 ;
137 [label="squared_error = 0.0\nsamples = 2\nvalue = 9.0"] ;
136 -> 137 ;
138 [label="squared_error = -0.0\nsamples = 1\nvalue = 9.1"] ;
136 -> 138 ;
139 [label="squared_error = -0.0\nsamples = 1\nvalue = 9.6"] ;
135 -> 139 ;
140 [label="squared_error = 0.0\nsamples = 1\nvalue = 9.6"] ;
134 -> 140 ;
141 [label="poziom_trudnosci_śr. zaawansowani <= 0.5\nsquared_error = 0.429\nsamples = 37\nvalue = 9.068"] ;
37 -> 141 ;
142 [label="kategoria_Przygodowy <= 0.5\nsquared_error = 0.018\nsamples = 5\nvalue = 9.64"] ;
141 -> 142 ;
143 [label="kategoria_Kryminalny <= 0.5\nsquared_error = 0.002\nsamples = 2\nvalue = 9.75"] ;
142 -> 143 ;
144 [label="squared_error = 0.0\nsamples = 1\nvalue = 9.8"] ;
143 -> 144 ;
145 [label="squared_error = -0.0\nsamples = 1\nvalue = 9.7"] ;
143 -> 145 ;
146 [label="squared_error = 0.016\nsamples = 3\nvalue = 9.567"] ;
142 -> 146 ;
147 [label="kategoria_Historyczny <= 0.5\nsquared_error = 0.434\nsamples = 32\nvalue = 8.978"] ;
141 -> 147 ;
148 [label="kategoria_Horror <= 0.5\nsquared_error = 0.416\nsamples = 31\nvalue = 9.01"] ;
147 -> 148 ;
149 [label="kategoria_Kryminalny <= 0.5\nsquared_error = 0.438\nsamples = 27\nvalue = 8.956"] ;
148 -> 149 ;
150 [label="kategoria_Thriller <= 0.5\nsquared_error = 0.445\nsamples = 24\nvalue = 8.95"] ;
149 -> 150 ;
151 [label="squared_error = 0.412\nsamples = 22\nvalue = 8.955"] ;
150 -> 151 ;
152 [label="squared_error = 0.81\nsamples = 2\nvalue = 8.9"] ;
150 -> 152 ;
153 [label="squared_error = 0.38\nsamples = 3\nvalue = 9.0"] ;
149 -> 153 ;
154 [label="squared_error = 0.117\nsamples = 4\nvalue = 9.375"] ;
148 -> 154 ;
155 [label="squared_error = 0.0\nsamples = 1\nvalue = 8.0"] ;
147 -> 155 ;
156 [label="kategoria_Horror <= 0.5\nsquared_error = 0.069\nsamples = 3\nvalue = 9.367"] ;
36 -> 156 ;
157 [label="kategoria_Thriller <= 0.5\nsquared_error = 0.002\nsamples = 2\nvalue = 9.55"] ;
156 -> 157 ;
158 [label="squared_error = 0.0\nsamples = 1\nvalue = 9.5"] ;
157 -> 158 ;
159 [label="squared_error = -0.0\nsamples = 1\nvalue = 9.6"] ;
157 -> 159 ;
160 [label="squared_error = -0.0\nsamples = 1\nvalue = 9.0"] ;
156 -> 160 ;
161 [label="kategoria_Kryminalny <= 0.5\nsquared_error = 0.16\nsamples = 2\nvalue = 9.5"] ;
35 -> 161 ;
162 [label="squared_error = 0.0\nsamples = 1\nvalue = 9.1"] ;
161 -> 162 ;
163 [label="squared_error = 0.0\nsamples = 1\nvalue = 9.9"] ;
161 -> 163 ;
164 [label="kategoria_Kryminalny <= 0.5\nsquared_error = 0.351\nsamples = 31\nvalue = 9.126"] ;
34 -> 164 ;
165 [label="poziom_trudnosci_śr. zaawansowani <= 0.5\nsquared_error = 0.364\nsamples = 28\nvalue = 9.171"] ;
164 -> 165 ;
166 [label="kategoria_Fantasy <= 0.5\nsquared_error = 0.12\nsamples = 8\nvalue = 9.338"] ;
165 -> 166 ;
167 [label="kategoria_Thriller <= 0.5\nsquared_error = 0.085\nsamples = 7\nvalue = 9.257"] ;
166 -> 167 ;
168 [label="squared_error = 0.047\nsamples = 3\nvalue = 9.1"] ;
167 -> 168 ;
169 [label="squared_error = 0.082\nsamples = 4\nvalue = 9.375"] ;
167 -> 169 ;
170 [label="squared_error = -0.0\nsamples = 1\nvalue = 9.9"] ;
166 -> 170 ;
171 [label="kategoria_Thriller <= 0.5\nsquared_error = 0.446\nsamples = 20\nvalue = 9.105"] ;
165 -> 171 ;
172 [label="kategoria_Przygodowy <= 0.5\nsquared_error = 0.278\nsamples = 15\nvalue = 9.133"] ;
171 -> 172 ;
173 [label="squared_error = 0.09\nsamples = 2\nvalue = 9.1"] ;
172 -> 173 ;
174 [label="squared_error = 0.307\nsamples = 13\nvalue = 9.138"] ;
172 -> 174 ;
175 [label="squared_error = 0.942\nsamples = 5\nvalue = 9.02"] ;
171 -> 175 ;
176 [label="poziom_trudnosci_doświadczony <= 0.5\nsquared_error = 0.027\nsamples = 3\nvalue = 8.7"] ;
164 -> 176 ;
177 [label="squared_error = 0.0\nsamples = 1\nvalue = 8.7"] ;
176 -> 177 ;
178 [label="squared_error = 0.04\nsamples = 2\nvalue = 8.7"] ;
176 -> 178 ;
179 [label="squared_error = 0.0\nsamples = 1\nvalue = 8.3"] ;
33 -> 179 ;
180 [label="squared_error = 0.003\nsamples = 2\nvalue = 9.55"] ;
32 -> 180 ;
181 [label="kategoria_Fantasy <= 0.5\nsquared_error = 0.382\nsamples = 3\nvalue = 8.533"] ;
31 -> 181 ;
182 [label="squared_error = 0.49\nsamples = 2\nvalue = 8.7"] ;
181 -> 182 ;
183 [label="squared_error = 0.0\nsamples = 1\nvalue = 8.2"] ;
181 -> 183 ;
184 [label="miasto_Gdańsk <= 0.5\nsquared_error = 0.391\nsamples = 28\nvalue = 8.832"] ;
30 -> 184 ;
185 [label="miasto_Łódź <= 0.5\nsquared_error = 0.323\nsamples = 24\nvalue = 8.929"] ;
184 -> 185 ;
186 [label="miasto_Rzeszów <= 0.5\nsquared_error = 0.306\nsamples = 23\nvalue = 8.965"] ;
185 -> 186 ;
187 [label="miasto_Wrocław <= 0.5\nsquared_error = 0.284\nsamples = 22\nvalue = 9.005"] ;
186 -> 187 ;
188 [label="miasto_Gostyń <= 0.5\nsquared_error = 0.235\nsamples = 20\nvalue = 9.055"] ;
187 -> 188 ;
189 [label="miasto_Poznań <= 0.5\nsquared_error = 0.225\nsamples = 19\nvalue = 9.021"] ;
188 -> 189 ;
190 [label="miasto_Toruń <= 0.5\nsquared_error = 0.21\nsamples = 18\nvalue = 8.983"] ;
189 -> 190 ;
191 [label="poziom_trudnosci_doświadczony <= 0.5\nsquared_error = 0.201\nsamples = 16\nvalue = 8.931"] ;
190 -> 191 ;
192 [label="miasto_Bytom <= 0.5\nsquared_error = 0.173\nsamples = 13\nvalue = 9.008"] ;
191 -> 192 ;
193 [label="poziom_trudnosci_eksperci <= 0.5\nsquared_error = 0.166\nsamples = 12\nvalue = 8.967"] ;
192 -> 193 ;
194 [label="miasto_Radom <= 0.5\nsquared_error = 0.17\nsamples = 11\nvalue = 8.936"] ;
193 -> 194 ;
195 [label="miasto_Chorzów <= 0.5\nsquared_error = 0.18\nsamples = 10\nvalue = 8.96"] ;
194 -> 195 ;
196 [label="miasto_Katowice <= 0.5\nsquared_error = 0.167\nsamples = 7\nvalue = 8.986"] ;
195 -> 196 ;
197 [label="squared_error = 0.0\nsamples = 1\nvalue = 9.0"] ;
196 -> 197 ;
198 [label="squared_error = 0.195\nsamples = 6\nvalue = 8.983"] ;
196 -> 198 ;
199 [label="squared_error = 0.207\nsamples = 3\nvalue = 8.9"] ;
195 -> 199 ;
200 [label="squared_error = 0.0\nsamples = 1\nvalue = 8.7"] ;
194 -> 200 ;
201 [label="squared_error = 0.0\nsamples = 1\nvalue = 9.3"] ;
193 -> 201 ;
202 [label="squared_error = 0.0\nsamples = 1\nvalue = 9.5"] ;
192 -> 202 ;
203 [label="miasto_Katowice <= 0.5\nsquared_error = 0.187\nsamples = 3\nvalue = 8.6"] ;
191 -> 203 ;
204 [label="squared_error = 0.0\nsamples = 1\nvalue = 8.8"] ;
203 -> 204 ;
205 [label="squared_error = 0.25\nsamples = 2\nvalue = 8.5"] ;
203 -> 205 ;
206 [label="poziom_trudnosci_doświadczony <= 0.5\nsquared_error = 0.09\nsamples = 2\nvalue = 9.4"] ;
190 -> 206 ;
207 [label="squared_error = 0.0\nsamples = 1\nvalue = 9.7"] ;
206 -> 207 ;
208 [label="squared_error = 0.0\nsamples = 1\nvalue = 9.1"] ;
206 -> 208 ;
209 [label="squared_error = -0.0\nsamples = 1\nvalue = 9.7"] ;
189 -> 209 ;
210 [label="squared_error = 0.0\nsamples = 1\nvalue = 9.7"] ;
188 -> 210 ;
211 [label="squared_error = 0.49\nsamples = 2\nvalue = 8.5"] ;
187 -> 211 ;
212 [label="squared_error = 0.0\nsamples = 1\nvalue = 8.1"] ;
186 -> 212 ;
213 [label="squared_error = -0.0\nsamples = 1\nvalue = 8.1"] ;
185 -> 213 ;
214 [label="poziom_trudnosci_śr. zaawansowani <= 0.5\nsquared_error = 0.403\nsamples = 4\nvalue = 8.25"] ;
184 -> 214 ;
215 [label="squared_error = 0.0\nsamples = 1\nvalue = 8.4"] ;
214 -> 215 ;
216 [label="squared_error = 0.527\nsamples = 3\nvalue = 8.2"] ;
214 -> 216 ;
217 [label="squared_error = 0.0\nsamples = 1\nvalue = 9.8"] ;
29 -> 217 ;
218 [label="kategoria_Kryminalny <= 0.5\nsquared_error = 0.526\nsamples = 6\nvalue = 8.633"] ;
28 -> 218 ;
219 [label="poziom_trudnosci_śr. zaawansowani <= 0.5\nsquared_error = 0.34\nsamples = 4\nvalue = 9.0"] ;
218 -> 219 ;
220 [label="squared_error = 0.0\nsamples = 1\nvalue = 8.6"] ;
219 -> 220 ;
221 [label="kategoria_Thriller <= 0.5\nsquared_error = 0.382\nsamples = 3\nvalue = 9.133"] ;
219 -> 221 ;
222 [label="squared_error = 0.49\nsamples = 2\nvalue = 9.3"] ;
221 -> 222 ;
223 [label="squared_error = -0.0\nsamples = 1\nvalue = 8.8"] ;
221 -> 223 ;
224 [label="squared_error = 0.09\nsamples = 2\nvalue = 7.9"] ;
218 -> 224 ;
225 [label="kategoria_Przygodowy <= 0.5\nsquared_error = 0.169\nsamples = 3\nvalue = 9.533"] ;
27 -> 225 ;
226 [label="squared_error = 0.09\nsamples = 2\nvalue = 9.3"] ;
225 -> 226 ;
227 [label="squared_error = -0.0\nsamples = 1\nvalue = 10.0"] ;
225 -> 227 ;
228 [label="kategoria_Thriller <= 0.5\nsquared_error = 0.218\nsamples = 6\nvalue = 9.383"] ;
26 -> 228 ;
229 [label="poziom_trudnosci_doświadczony <= 0.5\nsquared_error = 0.242\nsamples = 5\nvalue = 9.44"] ;
228 -> 229 ;
230 [label="squared_error = 0.202\nsamples = 3\nvalue = 9.433"] ;
229 -> 230 ;
231 [label="squared_error = 0.303\nsamples = 2\nvalue = 9.45"] ;
229 -> 231 ;
232 [label="squared_error = -0.0\nsamples = 1\nvalue = 9.1"] ;
228 -> 232 ;
233 [label="kategoria_Thriller <= 0.5\nsquared_error = 0.0\nsamples = 2\nvalue = 9.7"] ;
25 -> 233 ;
234 [label="squared_error = 0.0\nsamples = 1\nvalue = 9.7"] ;
233 -> 234 ;
235 [label="squared_error = 0.0\nsamples = 1\nvalue = 9.7"] ;
233 -> 235 ;
236 [label="squared_error = -0.0\nsamples = 1\nvalue = 10.0"] ;
24 -> 236 ;
237 [label="squared_error = 0.0\nsamples = 1\nvalue = 10.0"] ;
23 -> 237 ;
238 [label="kategoria_Fabularny <= 0.5\nsquared_error = 0.063\nsamples = 2\nvalue = 8.25"] ;
22 -> 238 ;
239 [label="squared_error = 0.0\nsamples = 1\nvalue = 8.0"] ;
238 -> 239 ;
240 [label="squared_error = 0.0\nsamples = 1\nvalue = 8.5"] ;
238 -> 240 ;
241 [label="kategoria_Fabularny <= 0.5\nsquared_error = 0.282\nsamples = 5\nvalue = 9.52"] ;
21 -> 241 ;
242 [label="kategoria_Przygodowy <= 0.5\nsquared_error = 0.002\nsamples = 2\nvalue = 9.85"] ;
241 -> 242 ;
243 [label="squared_error = 0.0\nsamples = 1\nvalue = 9.8"] ;
242 -> 243 ;
244 [label="squared_error = -0.0\nsamples = 1\nvalue = 9.9"] ;
242 -> 244 ;
245 [label="poziom_trudnosci_śr. zaawansowani <= 0.5\nsquared_error = 0.347\nsamples = 3\nvalue = 9.3"] ;
241 -> 245 ;
246 [label="squared_error = 0.0\nsamples = 1\nvalue = 9.5"] ;
245 -> 246 ;
247 [label="squared_error = 0.49\nsamples = 2\nvalue = 9.2"] ;
245 -> 247 ;
248 [label="kategoria_Thriller <= 0.5\nsquared_error = 0.002\nsamples = 2\nvalue = 9.85"] ;
20 -> 248 ;
249 [label="squared_error = 0.0\nsamples = 1\nvalue = 9.9"] ;
248 -> 249 ;
250 [label="squared_error = -0.0\nsamples = 1\nvalue = 9.8"] ;
248 -> 250 ;
251 [label="kategoria_Fantasy <= 0.5\nsquared_error = 0.213\nsamples = 15\nvalue = 9.333"] ;
19 -> 251 ;
252 [label="poziom_trudnosci_śr. zaawansowani <= 0.5\nsquared_error = 0.194\nsamples = 14\nvalue = 9.286"] ;
251 -> 252 ;
253 [label="kategoria_Horror <= 0.5\nsquared_error = 0.09\nsamples = 2\nvalue = 8.5"] ;
252 -> 253 ;
254 [label="squared_error = 0.0\nsamples = 1\nvalue = 8.2"] ;
253 -> 254 ;
255 [label="squared_error = 0.0\nsamples = 1\nvalue = 8.8"] ;
253 -> 255 ;
256 [label="kategoria_Przygodowy <= 0.5\nsquared_error = 0.091\nsamples = 12\nvalue = 9.417"] ;
252 -> 256 ;
257 [label="kategoria_Thriller <= 0.5\nsquared_error = 0.054\nsamples = 5\nvalue = 9.18"] ;
256 -> 257 ;
258 [label="squared_error = 0.09\nsamples = 2\nvalue = 9.2"] ;
257 -> 258 ;
259 [label="squared_error = 0.029\nsamples = 3\nvalue = 9.167"] ;
257 -> 259 ;
260 [label="squared_error = 0.05\nsamples = 7\nvalue = 9.586"] ;
256 -> 260 ;
261 [label="squared_error = 0.0\nsamples = 1\nvalue = 10.0"] ;
251 -> 261 ;
262 [label="poziom_trudnosci_doświadczony <= 0.5\nsquared_error = 1.21\nsamples = 2\nvalue = 8.2"] ;
18 -> 262 ;
263 [label="squared_error = 0.0\nsamples = 1\nvalue = 7.1"] ;
262 -> 263 ;
264 [label="squared_error = 0.0\nsamples = 1\nvalue = 9.3"] ;
262 -> 264 ;
265 [label="kategoria_Kryminalny <= 0.5\nsquared_error = 1.197\nsamples = 6\nvalue = 8.4"] ;
17 -> 265 ;
266 [label="poziom_trudnosci_śr. zaawansowani <= 0.5\nsquared_error = 0.476\nsamples = 5\nvalue = 8.8"] ;
265 -> 266 ;
267 [label="kategoria_Fantasy <= 0.5\nsquared_error = 0.282\nsamples = 4\nvalue = 9.05"] ;
266 -> 267 ;
268 [label="poziom_trudnosci_eksperci <= 0.5\nsquared_error = 0.287\nsamples = 3\nvalue = 8.9"] ;
267 -> 268 ;
269 [label="squared_error = 0.0\nsamples = 1\nvalue = 8.8"] ;
268 -> 269 ;
270 [label="squared_error = 0.422\nsamples = 2\nvalue = 8.95"] ;
268 -> 270 ;
271 [label="squared_error = -0.0\nsamples = 1\nvalue = 9.5"] ;
267 -> 271 ;
272 [label="squared_error = 0.0\nsamples = 1\nvalue = 7.8"] ;
266 -> 272 ;
273 [label="squared_error = -0.0\nsamples = 1\nvalue = 6.4"] ;
265 -> 273 ;
274 [label="kategoria_Kryminalny <= 0.5\nsquared_error = 0.25\nsamples = 2\nvalue = 7.9"] ;
16 -> 274 ;
275 [label="squared_error = 0.0\nsamples = 1\nvalue = 8.4"] ;
274 -> 275 ;
276 [label="squared_error = 0.0\nsamples = 1\nvalue = 7.4"] ;
274 -> 276 ;
277 [label="poziom_trudnosci_śr. zaawansowani <= 0.5\nsquared_error = 0.642\nsamples = 3\nvalue = 7.733"] ;
15 -> 277 ;
278 [label="squared_error = 0.0\nsamples = 2\nvalue = 8.3"] ;
277 -> 278 ;
279 [label="squared_error = -0.0\nsamples = 1\nvalue = 6.6"] ;
277 -> 279 ;
280 [label="kategoria_Kryminalny <= 0.5\nsquared_error = 0.996\nsamples = 10\nvalue = 8.28"] ;
14 -> 280 ;
281 [label="kategoria_Abstrakcyjny <= 0.5\nsquared_error = 0.622\nsamples = 9\nvalue = 8.5"] ;
280 -> 281 ;
282 [label="kategoria_Thriller <= 0.5\nsquared_error = 0.477\nsamples = 7\nvalue = 8.243"] ;
281 -> 282 ;
283 [label="poziom_trudnosci_śr. zaawansowani <= 0.5\nsquared_error = 0.662\nsamples = 5\nvalue = 8.28"] ;
282 -> 283 ;
284 [label="squared_error = 0.0\nsamples = 1\nvalue = 8.5"] ;
283 -> 284 ;
285 [label="squared_error = 0.812\nsamples = 4\nvalue = 8.225"] ;
283 -> 285 ;
286 [label="squared_error = 0.003\nsamples = 2\nvalue = 8.15"] ;
282 -> 286 ;
287 [label="squared_error = 0.09\nsamples = 2\nvalue = 9.4"] ;
281 -> 287 ;
288 [label="squared_error = 0.0\nsamples = 1\nvalue = 6.3"] ;
280 -> 288 ;
289 [label="kategoria_Kryminalny <= 0.5\nsquared_error = 1.0\nsamples = 2\nvalue = 7.4"] ;
13 -> 289 ;
290 [label="squared_error = 0.0\nsamples = 1\nvalue = 8.4"] ;
289 -> 290 ;
291 [label="squared_error = 0.0\nsamples = 1\nvalue = 6.4"] ;
289 -> 291 ;
292 [label="kategoria_Przygodowy <= 0.5\nsquared_error = 1.102\nsamples = 2\nvalue = 7.35"] ;
12 -> 292 ;
293 [label="squared_error = 0.0\nsamples = 1\nvalue = 8.4"] ;
292 -> 293 ;
294 [label="squared_error = 0.0\nsamples = 1\nvalue = 6.3"] ;
292 -> 294 ;
295 [label="squared_error = 0.0\nsamples = 1\nvalue = 6.3"] ;
11 -> 295 ;
296 [label="kategoria_Thriller <= 0.5\nsquared_error = 1.44\nsamples = 2\nvalue = 6.8"] ;
10 -> 296 ;
297 [label="squared_error = 0.0\nsamples = 1\nvalue = 8.0"] ;
296 -> 297 ;
298 [label="squared_error = 0.0\nsamples = 1\nvalue = 5.6"] ;
296 -> 298 ;
299 [label="squared_error = -0.0\nsamples = 1\nvalue = 5.8"] ;
9 -> 299 ;
300 [label="poziom_trudnosci_śr. zaawansowani <= 0.5\nsquared_error = 1.991\nsamples = 8\nvalue = 7.788"] ;
8 -> 300 ;
301 [label="kategoria_Thriller <= 0.5\nsquared_error = 0.155\nsamples = 4\nvalue = 8.5"] ;
300 -> 301 ;
302 [label="kategoria_Horror <= 0.5\nsquared_error = 0.047\nsamples = 3\nvalue = 8.7"] ;
301 -> 302 ;
303 [label="kategoria_Fabularny <= 0.5\nsquared_error = 0.002\nsamples = 2\nvalue = 8.85"] ;
302 -> 303 ;
304 [label="squared_error = 0.0\nsamples = 1\nvalue = 8.9"] ;
303 -> 304 ;
305 [label="squared_error = -0.0\nsamples = 1\nvalue = 8.8"] ;
303 -> 305 ;
306 [label="squared_error = 0.0\nsamples = 1\nvalue = 8.4"] ;
302 -> 306 ;
307 [label="squared_error = -0.0\nsamples = 1\nvalue = 7.9"] ;
301 -> 307 ;
308 [label="kategoria_Horror <= 0.5\nsquared_error = 2.812\nsamples = 4\nvalue = 7.075"] ;
300 -> 308 ;
309 [label="kategoria_Przygodowy <= 0.5\nsquared_error = 1.647\nsamples = 3\nvalue = 7.8"] ;
308 -> 309 ;
310 [label="squared_error = 0.0\nsamples = 1\nvalue = 8.5"] ;
309 -> 310 ;
311 [label="squared_error = 2.103\nsamples = 2\nvalue = 7.45"] ;
309 -> 311 ;
312 [label="squared_error = 0.0\nsamples = 1\nvalue = 4.9"] ;
308 -> 312 ;
313 [label="poziom_trudnosci_na pierwszy raz <= 0.5\nsquared_error = 0.423\nsamples = 2\nvalue = 6.65"] ;
7 -> 313 ;
314 [label="squared_error = 0.0\nsamples = 1\nvalue = 6.0"] ;
313 -> 314 ;
315 [label="squared_error = -0.0\nsamples = 1\nvalue = 7.3"] ;
313 -> 315 ;
316 [label="squared_error = -0.0\nsamples = 1\nvalue = 5.6"] ;
6 -> 316 ;
317 [label="kategoria_Historyczny <= 0.5\nsquared_error = 1.296\nsamples = 44\nvalue = 8.325"] ;
5 -> 317 ;
318 [label="kategoria_Thriller <= 0.5\nsquared_error = 1.311\nsamples = 41\nvalue = 8.256"] ;
317 -> 318 ;
319 [label="kategoria_Horror <= 0.5\nsquared_error = 1.171\nsamples = 38\nvalue = 8.321"] ;
318 -> 319 ;
320 [label="poziom_trudnosci_na pierwszy raz <= 0.5\nsquared_error = 1.157\nsamples = 37\nvalue = 8.286"] ;
319 -> 320 ;
321 [label="kategoria_Futurystyczny <= 0.5\nsquared_error = 1.149\nsamples = 36\nvalue = 8.319"] ;
320 -> 321 ;
322 [label="kategoria_Fabularny <= 0.5\nsquared_error = 1.169\nsamples = 35\nvalue = 8.3"] ;
321 -> 322 ;
323 [label="poziom_trudnosci_doświadczony <= 0.5\nsquared_error = 1.219\nsamples = 31\nvalue = 8.258"] ;
322 -> 323 ;
324 [label="kategoria_Fantasy <= 0.5\nsquared_error = 1.19\nsamples = 24\nvalue = 8.317"] ;
323 -> 324 ;
325 [label="kategoria_Kryminalny <= 0.5\nsquared_error = 1.276\nsamples = 22\nvalue = 8.359"] ;
324 -> 325 ;
326 [label="squared_error = 1.436\nsamples = 19\nvalue = 8.337"] ;
325 -> 326 ;
327 [label="squared_error = 0.24\nsamples = 3\nvalue = 8.5"] ;
325 -> 327 ;
328 [label="squared_error = 0.002\nsamples = 2\nvalue = 7.85"] ;
324 -> 328 ;
329 [label="kategoria_Przygodowy <= 0.5\nsquared_error = 1.268\nsamples = 7\nvalue = 8.057"] ;
323 -> 329 ;
330 [label="squared_error = 2.56\nsamples = 2\nvalue = 7.6"] ;
329 -> 330 ;
331 [label="squared_error = 0.634\nsamples = 5\nvalue = 8.24"] ;
329 -> 331 ;
332 [label="poziom_trudnosci_śr. zaawansowani <= 0.5\nsquared_error = 0.657\nsamples = 4\nvalue = 8.625"] ;
322 -> 332 ;
333 [label="squared_error = 0.0\nsamples = 1\nvalue = 8.9"] ;
332 -> 333 ;
334 [label="squared_error = 0.842\nsamples = 3\nvalue = 8.533"] ;
332 -> 334 ;
335 [label="squared_error = 0.0\nsamples = 1\nvalue = 9.0"] ;
321 -> 335 ;
336 [label="squared_error = -0.0\nsamples = 1\nvalue = 7.1"] ;
320 -> 336 ;
337 [label="squared_error = -0.0\nsamples = 1\nvalue = 9.6"] ;
319 -> 337 ;
338 [label="poziom_trudnosci_eksperci <= 0.5\nsquared_error = 2.349\nsamples = 3\nvalue = 7.433"] ;
318 -> 338 ;
339 [label="squared_error = 3.423\nsamples = 2\nvalue = 7.25"] ;
338 -> 339 ;
340 [label="squared_error = -0.0\nsamples = 1\nvalue = 7.8"] ;
338 -> 340 ;
341 [label="poziom_trudnosci_śr. zaawansowani <= 0.5\nsquared_error = 0.142\nsamples = 3\nvalue = 9.267"] ;
317 -> 341 ;
342 [label="squared_error = 0.0\nsamples = 1\nvalue = 9.0"] ;
341 -> 342 ;
343 [label="squared_error = 0.16\nsamples = 2\nvalue = 9.4"] ;
341 -> 343 ;
344 [label="kategoria_Przygodowy <= 0.5\nsquared_error = 7.297\nsamples = 4\nvalue = 6.925"] ;
4 -> 344 ;
345 [label="kategoria_Thriller <= 0.5\nsquared_error = 0.01\nsamples = 2\nvalue = 9.5"] ;
344 -> 345 ;
346 [label="squared_error = 0.0\nsamples = 1\nvalue = 9.4"] ;
345 -> 346 ;
347 [label="squared_error = 0.0\nsamples = 1\nvalue = 9.6"] ;
345 -> 347 ;
348 [label="squared_error = 1.323\nsamples = 2\nvalue = 4.35"] ;
344 -> 348 ;
349 [label="miasto_Rzeszów <= 0.5\nsquared_error = 1.278\nsamples = 92\nvalue = 8.372"] ;
3 -> 349 ;
350 [label="miasto_Wrocław <= 0.5\nsquared_error = 1.182\nsamples = 88\nvalue = 8.448"] ;
349 -> 350 ;
351 [label="kategoria_Abstrakcyjny <= 0.5\nsquared_error = 0.778\nsamples = 73\nvalue = 8.579"] ;
350 -> 351 ;
352 [label="miasto_Zamość <= 0.5\nsquared_error = 0.643\nsamples = 67\nvalue = 8.696"] ;
351 -> 352 ;
353 [label="miasto_Bydgoszcz <= 0.5\nsquared_error = 0.609\nsamples = 65\nvalue = 8.655"] ;
352 -> 353 ;
354 [label="kategoria_Kryminalny <= 0.5\nsquared_error = 0.623\nsamples = 58\nvalue = 8.588"] ;
353 -> 354 ;
355 [label="miasto_Nowy Sącz <= 0.5\nsquared_error = 0.588\nsamples = 51\nvalue = 8.659"] ;
354 -> 355 ;
356 [label="miasto_Lublin <= 0.5\nsquared_error = 0.55\nsamples = 50\nvalue = 8.69"] ;
355 -> 356 ;
357 [label="miasto_Stargard <= 0.5\nsquared_error = 0.527\nsamples = 49\nvalue = 8.716"] ;
356 -> 357 ;
358 [label="kategoria_Przygodowy <= 0.5\nsquared_error = 0.507\nsamples = 48\nvalue = 8.742"] ;
357 -> 358 ;
359 [label="kategoria_Historyczny <= 0.5\nsquared_error = 0.427\nsamples = 24\nvalue = 8.921"] ;
358 -> 359 ;
360 [label="miasto_Gdańsk <= 0.5\nsquared_error = 0.446\nsamples = 21\nvalue = 8.967"] ;
359 -> 360 ;
361 [label="kategoria_Fabularny <= 0.5\nsquared_error = 0.451\nsamples = 20\nvalue = 8.995"] ;
360 -> 361 ;
362 [label="miasto_Olsztyn <= 0.5\nsquared_error = 0.478\nsamples = 12\nvalue = 9.1"] ;
361 -> 362 ;
363 [label="miasto_Warszawa <= 0.5\nsquared_error = 0.473\nsamples = 11\nvalue = 9.036"] ;
362 -> 363 ;
364 [label="miasto_Poznań <= 0.5\nsquared_error = 0.472\nsamples = 10\nvalue = 8.97"] ;
363 -> 364 ;
365 [label="miasto_Kielce <= 0.5\nsquared_error = 0.492\nsamples = 5\nvalue = 8.8"] ;
364 -> 365 ;
366 [label="kategoria_Dla dzieci <= 0.5\nsquared_error = 0.109\nsamples = 3\nvalue = 8.667"] ;
365 -> 366 ;
367 [label="squared_error = 0.0\nsamples = 1\nvalue = 8.6"] ;
366 -> 367 ;
368 [label="squared_error = 0.16\nsamples = 2\nvalue = 8.7"] ;
366 -> 368 ;
369 [label="squared_error = 1.0\nsamples = 2\nvalue = 9.0"] ;
365 -> 369 ;
370 [label="kategoria_Dla dzieci <= 0.5\nsquared_error = 0.394\nsamples = 5\nvalue = 9.14"] ;
364 -> 370 ;
371 [label="kategoria_Horror <= 0.5\nsquared_error = 0.262\nsamples = 4\nvalue = 8.925"] ;
370 -> 371 ;
372 [label="kategoria_Fantasy <= 0.5\nsquared_error = 0.249\nsamples = 3\nvalue = 8.767"] ;
371 -> 372 ;
373 [label="squared_error = 0.0\nsamples = 1\nvalue = 8.9"] ;
372 -> 373 ;
374 [label="squared_error = 0.36\nsamples = 2\nvalue = 8.7"] ;
372 -> 374 ;
375 [label="squared_error = 0.0\nsamples = 1\nvalue = 9.4"] ;
371 -> 375 ;
376 [label="squared_error = 0.0\nsamples = 1\nvalue = 10.0"] ;
370 -> 376 ;
377 [label="squared_error = -0.0\nsamples = 1\nvalue = 9.7"] ;
363 -> 377 ;
378 [label="squared_error = 0.0\nsamples = 1\nvalue = 9.8"] ;
362 -> 378 ;
379 [label="miasto_Katowice <= 0.5\nsquared_error = 0.37\nsamples = 8\nvalue = 8.838"] ;
361 -> 379 ;
380 [label="miasto_Poznań <= 0.5\nsquared_error = 0.401\nsamples = 7\nvalue = 8.786"] ;
379 -> 380 ;
381 [label="miasto_Olsztyn <= 0.5\nsquared_error = 0.017\nsamples = 4\nvalue = 8.875"] ;
380 -> 381 ;
382 [label="miasto_Warszawa <= 0.5\nsquared_error = 0.009\nsamples = 3\nvalue = 8.933"] ;
381 -> 382 ;
383 [label="squared_error = 0.0\nsamples = 2\nvalue = 9.0"] ;
382 -> 383 ;
384 [label="squared_error = -0.0\nsamples = 1\nvalue = 8.8"] ;
382 -> 384 ;
385 [label="squared_error = 0.0\nsamples = 1\nvalue = 8.7"] ;
381 -> 385 ;
386 [label="squared_error = 0.889\nsamples = 3\nvalue = 8.667"] ;
380 -> 386 ;
387 [label="squared_error = -0.0\nsamples = 1\nvalue = 9.2"] ;
379 -> 387 ;
388 [label="squared_error = -0.0\nsamples = 1\nvalue = 8.4"] ;
360 -> 388 ;
389 [label="miasto_Warszawa <= 0.5\nsquared_error = 0.18\nsamples = 3\nvalue = 8.6"] ;
359 -> 389 ;
390 [label="squared_error = 0.0\nsamples = 2\nvalue = 8.9"] ;
389 -> 390 ;
391 [label="squared_error = 0.0\nsamples = 1\nvalue = 8.0"] ;
389 -> 391 ;
392 [label="miasto_Łódź <= 0.5\nsquared_error = 0.522\nsamples = 24\nvalue = 8.562"] ;
358 -> 392 ;
393 [label="miasto_Poznań <= 0.5\nsquared_error = 0.472\nsamples = 23\nvalue = 8.617"] ;
392 -> 393 ;
394 [label="miasto_Grudziądz <= 0.5\nsquared_error = 0.35\nsamples = 19\nvalue = 8.747"] ;
393 -> 394 ;
395 [label="miasto_Słupsk <= 0.5\nsquared_error = 0.316\nsamples = 18\nvalue = 8.694"] ;
394 -> 395 ;
396 [label="miasto_Iława <= 0.5\nsquared_error = 0.285\nsamples = 17\nvalue = 8.747"] ;
395 -> 396 ;
397 [label="miasto_Krynica <= 0.5\nsquared_error = 0.194\nsamples = 15\nvalue = 8.833"] ;
396 -> 397 ;
398 [label="miasto_Toruń <= 0.5\nsquared_error = 0.177\nsamples = 14\nvalue = 8.879"] ;
397 -> 398 ;
399 [label="miasto_Gdańsk <= 0.5\nsquared_error = 0.168\nsamples = 12\nvalue = 8.95"] ;
398 -> 399 ;
400 [label="miasto_Katowice <= 0.5\nsquared_error = 0.153\nsamples = 11\nvalue = 9.0"] ;
399 -> 400 ;
401 [label="miasto_Warszawa <= 0.5\nsquared_error = 0.15\nsamples = 10\nvalue = 8.96"] ;
400 -> 401 ;
402 [label="miasto_Szczecin <= 0.5\nsquared_error = 0.008\nsamples = 6\nvalue = 9.017"] ;
401 -> 402 ;
403 [label="squared_error = -0.0\nsamples = 4\nvalue = 9.0"] ;
402 -> 403 ;
404 [label="squared_error = 0.023\nsamples = 2\nvalue = 9.05"] ;
402 -> 404 ;
405 [label="squared_error = 0.352\nsamples = 4\nvalue = 8.875"] ;
401 -> 405 ;
406 [label="squared_error = -0.0\nsamples = 1\nvalue = 9.4"] ;
400 -> 406 ;
407 [label="squared_error = -0.0\nsamples = 1\nvalue = 8.4"] ;
399 -> 407 ;
408 [label="squared_error = 0.023\nsamples = 2\nvalue = 8.45"] ;
398 -> 408 ;
409 [label="squared_error = -0.0\nsamples = 1\nvalue = 8.2"] ;
397 -> 409 ;
410 [label="squared_error = 0.49\nsamples = 2\nvalue = 8.1"] ;
396 -> 410 ;
411 [label="squared_error = -0.0\nsamples = 1\nvalue = 7.8"] ;
395 -> 411 ;
412 [label="squared_error = 0.0\nsamples = 1\nvalue = 9.7"] ;
394 -> 412 ;
413 [label="squared_error = 0.59\nsamples = 4\nvalue = 8.0"] ;
393 -> 413 ;
414 [label="squared_error = -0.0\nsamples = 1\nvalue = 7.3"] ;
392 -> 414 ;
415 [label="squared_error = 0.0\nsamples = 1\nvalue = 7.5"] ;
357 -> 415 ;
416 [label="squared_error = -0.0\nsamples = 1\nvalue = 7.4"] ;
356 -> 416 ;
417 [label="squared_error = -0.0\nsamples = 1\nvalue = 7.1"] ;
355 -> 417 ;
418 [label="miasto_Bielsko-Biała <= 0.5\nsquared_error = 0.573\nsamples = 7\nvalue = 8.071"] ;
354 -> 418 ;
419 [label="miasto_Gdynia <= 0.5\nsquared_error = 0.303\nsamples = 6\nvalue = 8.3"] ;
418 -> 419 ;
420 [label="miasto_Łódź <= 0.5\nsquared_error = 0.17\nsamples = 5\nvalue = 8.48"] ;
419 -> 420 ;
421 [label="miasto_Chorzów <= 0.5\nsquared_error = 0.016\nsamples = 3\nvalue = 8.733"] ;
420 -> 421 ;
422 [label="miasto_Nowy Sącz <= 0.5\nsquared_error = 0.003\nsamples = 2\nvalue = 8.65"] ;
421 -> 422 ;
423 [label="squared_error = 0.0\nsamples = 1\nvalue = 8.6"] ;
422 -> 423 ;
424 [label="squared_error = 0.0\nsamples = 1\nvalue = 8.7"] ;
422 -> 424 ;
425 [label="squared_error = 0.0\nsamples = 1\nvalue = 8.9"] ;
421 -> 425 ;
426 [label="squared_error = 0.16\nsamples = 2\nvalue = 8.1"] ;
420 -> 426 ;
427 [label="squared_error = 0.0\nsamples = 1\nvalue = 7.4"] ;
419 -> 427 ;
428 [label="squared_error = 0.0\nsamples = 1\nvalue = 6.7"] ;
418 -> 428 ;
429 [label="kategoria_Thriller <= 0.5\nsquared_error = 0.138\nsamples = 7\nvalue = 9.214"] ;
353 -> 429 ;
430 [label="kategoria_Przygodowy <= 0.5\nsquared_error = 0.116\nsamples = 6\nvalue = 9.133"] ;
429 -> 430 ;
431 [label="squared_error = 0.0\nsamples = 1\nvalue = 9.3"] ;
430 -> 431 ;
432 [label="squared_error = 0.132\nsamples = 5\nvalue = 9.1"] ;
430 -> 432 ;
433 [label="squared_error = -0.0\nsamples = 1\nvalue = 9.7"] ;
429 -> 433 ;
434 [label="squared_error = -0.0\nsamples = 2\nvalue = 10.0"] ;
352 -> 434 ;
435 [label="miasto_Zakopane <= 0.5\nsquared_error = 0.455\nsamples = 6\nvalue = 7.283"] ;
351 -> 435 ;
436 [label="miasto_Gdańsk <= 0.5\nsquared_error = 0.19\nsamples = 5\nvalue = 7.04"] ;
435 -> 436 ;
437 [label="miasto_Krynica <= 0.5\nsquared_error = 0.11\nsamples = 4\nvalue = 7.2"] ;
436 -> 437 ;
438 [label="squared_error = 0.107\nsamples = 3\nvalue = 7.1"] ;
437 -> 438 ;
439 [label="squared_error = 0.0\nsamples = 1\nvalue = 7.5"] ;
437 -> 439 ;
440 [label="squared_error = 0.0\nsamples = 1\nvalue = 6.4"] ;
436 -> 440 ;
441 [label="squared_error = -0.0\nsamples = 1\nvalue = 8.5"] ;
435 -> 441 ;
442 [label="kategoria_Przygodowy <= 0.5\nsquared_error = 2.655\nsamples = 15\nvalue = 7.807"] ;
350 -> 442 ;
443 [label="kategoria_Kryminalny <= 0.5\nsquared_error = 1.364\nsamples = 10\nvalue = 8.23"] ;
442 -> 443 ;
444 [label="kategoria_Thriller <= 0.5\nsquared_error = 0.948\nsamples = 7\nvalue = 8.729"] ;
443 -> 444 ;
445 [label="kategoria_Dla dzieci <= 0.5\nsquared_error = 0.225\nsamples = 6\nvalue = 9.083"] ;
444 -> 445 ;
446 [label="kategoria_Fabularny <= 0.5\nsquared_error = 0.068\nsamples = 5\nvalue = 8.9"] ;
445 -> 446 ;
447 [label="kategoria_Horror <= 0.5\nsquared_error = 0.035\nsamples = 4\nvalue = 8.8"] ;
446 -> 447 ;
448 [label="kategoria_Abstrakcyjny <= 0.5\nsquared_error = 0.007\nsamples = 3\nvalue = 8.7"] ;
447 -> 448 ;
449 [label="squared_error = 0.0\nsamples = 1\nvalue = 8.7"] ;
448 -> 449 ;
450 [label="squared_error = 0.01\nsamples = 2\nvalue = 8.7"] ;
448 -> 450 ;
451 [label="squared_error = -0.0\nsamples = 1\nvalue = 9.1"] ;
447 -> 451 ;
452 [label="squared_error = 0.0\nsamples = 1\nvalue = 9.3"] ;
446 -> 452 ;
453 [label="squared_error = 0.0\nsamples = 1\nvalue = 10.0"] ;
445 -> 453 ;
454 [label="squared_error = 0.0\nsamples = 1\nvalue = 6.6"] ;
444 -> 454 ;
455 [label="squared_error = 0.402\nsamples = 3\nvalue = 7.067"] ;
443 -> 455 ;
456 [label="squared_error = 4.162\nsamples = 5\nvalue = 6.96"] ;
442 -> 456 ;
457 [label="kategoria_Fantasy <= 0.5\nsquared_error = 0.46\nsamples = 4\nvalue = 6.7"] ;
349 -> 457 ;
458 [label="kategoria_Historyczny <= 0.5\nsquared_error = 0.169\nsamples = 3\nvalue = 7.033"] ;
457 -> 458 ;
459 [label="kategoria_Kryminalny <= 0.5\nsquared_error = 0.04\nsamples = 2\nvalue = 7.3"] ;
458 -> 459 ;
460 [label="squared_error = 0.0\nsamples = 1\nvalue = 7.5"] ;
459 -> 460 ;
461 [label="squared_error = 0.0\nsamples = 1\nvalue = 7.1"] ;
459 -> 461 ;
462 [label="squared_error = 0.0\nsamples = 1\nvalue = 6.5"] ;
458 -> 462 ;
463 [label="squared_error = 0.0\nsamples = 1\nvalue = 5.7"] ;
457 -> 463 ;
464 [label="poziom_trudnosci_początkujący <= 0.5\nsquared_error = 0.78\nsamples = 3\nvalue = 6.6"] ;
2 -> 464 ;
465 [label="kategoria_Horror <= 0.5\nsquared_error = 0.09\nsamples = 2\nvalue = 6.0"] ;
464 -> 465 ;
466 [label="squared_error = 0.0\nsamples = 1\nvalue = 5.7"] ;
465 -> 466 ;
467 [label="squared_error = 0.0\nsamples = 1\nvalue = 6.3"] ;
465 -> 467 ;
468 [label="squared_error = -0.0\nsamples = 1\nvalue = 7.8"] ;
464 -> 468 ;
469 [label="kategoria_Fabularny <= 0.5\nsquared_error = 1.94\nsamples = 37\nvalue = 8.014"] ;
1 -> 469 ;
470 [label="kategoria_Kryminalny <= 0.5\nsquared_error = 1.46\nsamples = 33\nvalue = 8.23"] ;
469 -> 470 ;
471 [label="kategoria_Dla dzieci <= 0.5\nsquared_error = 1.293\nsamples = 28\nvalue = 8.457"] ;
470 -> 471 ;
472 [label="kategoria_Historyczny <= 0.5\nsquared_error = 1.195\nsamples = 26\nvalue = 8.338"] ;
471 -> 472 ;
473 [label="poziom_trudnosci_początkujący <= 0.5\nsquared_error = 0.983\nsamples = 23\nvalue = 8.448"] ;
472 -> 473 ;
474 [label="kategoria_Thriller <= 0.5\nsquared_error = 1.091\nsamples = 20\nvalue = 8.5"] ;
473 -> 474 ;
475 [label="kategoria_Przygodowy <= 0.5\nsquared_error = 1.14\nsamples = 15\nvalue = 8.567"] ;
474 -> 475 ;
476 [label="squared_error = 1.229\nsamples = 3\nvalue = 8.733"] ;
475 -> 476 ;
477 [label="poziom_trudnosci_śr. zaawansowani <= 0.5\nsquared_error = 1.109\nsamples = 12\nvalue = 8.525"] ;
475 -> 477 ;
478 [label="squared_error = 2.13\nsamples = 4\nvalue = 8.6"] ;
477 -> 478 ;
479 [label="squared_error = 0.594\nsamples = 8\nvalue = 8.487"] ;
477 -> 479 ;
480 [label="poziom_trudnosci_doświadczony <= 0.5\nsquared_error = 0.892\nsamples = 5\nvalue = 8.3"] ;
474 -> 480 ;
481 [label="squared_error = 1.087\nsamples = 4\nvalue = 8.375"] ;
480 -> 481 ;
482 [label="squared_error = -0.0\nsamples = 1\nvalue = 8.0"] ;
480 -> 482 ;
483 [label="kategoria_Horror <= 0.5\nsquared_error = 0.127\nsamples = 3\nvalue = 8.1"] ;
473 -> 483 ;
484 [label="squared_error = 0.16\nsamples = 2\nvalue = 8.0"] ;
483 -> 484 ;
485 [label="squared_error = 0.0\nsamples = 1\nvalue = 8.3"] ;
483 -> 485 ;
486 [label="poziom_trudnosci_doświadczony <= 0.5\nsquared_error = 2.027\nsamples = 3\nvalue = 7.5"] ;
472 -> 486 ;
487 [label="poziom_trudnosci_śr. zaawansowani <= 0.5\nsquared_error = 0.04\nsamples = 2\nvalue = 8.5"] ;
486 -> 487 ;
488 [label="squared_error = 0.0\nsamples = 1\nvalue = 8.3"] ;
487 -> 488 ;
489 [label="squared_error = -0.0\nsamples = 1\nvalue = 8.7"] ;
487 -> 489 ;
490 [label="squared_error = 0.0\nsamples = 1\nvalue = 5.5"] ;
486 -> 490 ;
491 [label="squared_error = 0.0\nsamples = 2\nvalue = 10.0"] ;
471 -> 491 ;
492 [label="poziom_trudnosci_doświadczony <= 0.5\nsquared_error = 0.49\nsamples = 5\nvalue = 6.96"] ;
470 -> 492 ;
493 [label="poziom_trudnosci_śr. zaawansowani <= 0.5\nsquared_error = 0.117\nsamples = 4\nvalue = 7.275"] ;
492 -> 493 ;
494 [label="squared_error = 0.023\nsamples = 2\nvalue = 6.95"] ;
493 -> 494 ;
495 [label="squared_error = 0.0\nsamples = 2\nvalue = 7.6"] ;
493 -> 495 ;
496 [label="squared_error = -0.0\nsamples = 1\nvalue = 5.7"] ;
492 -> 496 ;
497 [label="poziom_trudnosci_początkujący <= 0.5\nsquared_error = 2.312\nsamples = 4\nvalue = 6.225"] ;
469 -> 497 ;
498 [label="poziom_trudnosci_doświadczony <= 0.5\nsquared_error = 0.02\nsamples = 3\nvalue = 7.1"] ;
497 -> 498 ;
499 [label="squared_error = 0.0\nsamples = 2\nvalue = 7.0"] ;
498 -> 499 ;
500 [label="squared_error = -0.0\nsamples = 1\nvalue = 7.3"] ;
498 -> 500 ;
501 [label="squared_error = -0.0\nsamples = 1\nvalue = 3.6"] ;
497 -> 501 ;
502 [label="kategoria_Historyczny <= 0.5\nsquared_error = 0.326\nsamples = 6\nvalue = 6.933"] ;
0 -> 502 [labeldistance=2.5, labelangle=-45, headlabel="False"] ;
503 [label="kategoria_Thriller <= 0.5\nsquared_error = 0.082\nsamples = 5\nvalue = 7.16"] ;
502 -> 503 ;
504 [label="kategoria_Kryminalny <= 0.5\nsquared_error = 0.012\nsamples = 4\nvalue = 7.025"] ;
503 -> 504 ;
505 [label="poziom_trudnosci_na pierwszy raz <= 0.5\nsquared_error = 0.002\nsamples = 3\nvalue = 6.967"] ;
504 -> 505 ;
506 [label="kategoria_Fabularny <= 0.5\nsquared_error = 0.0\nsamples = 2\nvalue = 7.0"] ;
505 -> 506 ;
507 [label="squared_error = 0.0\nsamples = 1\nvalue = 7.0"] ;
506 -> 507 ;
508 [label="squared_error = 0.0\nsamples = 1\nvalue = 7.0"] ;
506 -> 508 ;
509 [label="squared_error = 0.0\nsamples = 1\nvalue = 6.9"] ;
505 -> 509 ;
510 [label="squared_error = 0.0\nsamples = 1\nvalue = 7.2"] ;
504 -> 510 ;
511 [label="squared_error = 0.0\nsamples = 1\nvalue = 7.7"] ;
503 -> 511 ;
512 [label="squared_error = 0.0\nsamples = 1\nvalue = 5.8"] ;
502 -> 512 ;
}